{
  "object_classifier_type": "OpenCVMLClassifier",
  "featureExtractor": {
    "feature_extractor_type": "DefaultFeatureExtractor",
    "measurements": [
      "Nucleus: Area µm^2",
      "Nucleus: Length µm",
      "Nucleus: Circularity",
      "Nucleus: Solidity",
      "Nucleus: Max diameter µm",
      "Nucleus: Min diameter µm",
      "Cell: Area µm^2",
      "Cell: Length µm",
      "Cell: Circularity",
      "Cell: Solidity",
      "Cell: Max diameter µm",
      "Cell: Min diameter µm",
      "Nucleus/Cell area ratio",
      "Nuclei: Nucleus: Mean",
      "Nuclei: Nucleus: Median",
      "Nuclei: Nucleus: Min",
      "Nuclei: Nucleus: Max",
      "Nuclei: Nucleus: Std.Dev.",
      "Nuclei: Cytoplasm: Mean",
      "Nuclei: Cytoplasm: Median",
      "Nuclei: Cytoplasm: Min",
      "Nuclei: Cytoplasm: Max",
      "Nuclei: Cytoplasm: Std.Dev.",
      "Nuclei: Membrane: Mean",
      "Nuclei: Membrane: Median",
      "Nuclei: Membrane: Min",
      "Nuclei: Membrane: Max",
      "Nuclei: Membrane: Std.Dev.",
      "Nuclei: Cell: Mean",
      "Nuclei: Cell: Median",
      "Nuclei: Cell: Min",
      "Nuclei: Cell: Max",
      "Nuclei: Cell: Std.Dev.",
      "CD68: Nucleus: Mean",
      "CD68: Nucleus: Median",
      "CD68: Nucleus: Min",
      "CD68: Nucleus: Max",
      "CD68: Nucleus: Std.Dev.",
      "CD68: Cytoplasm: Mean",
      "CD68: Cytoplasm: Median",
      "CD68: Cytoplasm: Min",
      "CD68: Cytoplasm: Max",
      "CD68: Cytoplasm: Std.Dev.",
      "CD68: Membrane: Mean",
      "CD68: Membrane: Median",
      "CD68: Membrane: Min",
      "CD68: Membrane: Max",
      "CD68: Membrane: Std.Dev.",
      "CD68: Cell: Mean",
      "CD68: Cell: Median",
      "CD68: Cell: Min",
      "CD68: Cell: Max",
      "CD68: Cell: Std.Dev.",
      "HLADR: Nucleus: Mean",
      "HLADR: Nucleus: Median",
      "HLADR: Nucleus: Min",
      "HLADR: Nucleus: Max",
      "HLADR: Nucleus: Std.Dev.",
      "HLADR: Cytoplasm: Mean",
      "HLADR: Cytoplasm: Median",
      "HLADR: Cytoplasm: Min",
      "HLADR: Cytoplasm: Max",
      "HLADR: Cytoplasm: Std.Dev.",
      "HLADR: Membrane: Mean",
      "HLADR: Membrane: Median",
      "HLADR: Membrane: Min",
      "HLADR: Membrane: Max",
      "HLADR: Membrane: Std.Dev.",
      "HLADR: Cell: Mean",
      "HLADR: Cell: Median",
      "HLADR: Cell: Min",
      "HLADR: Cell: Max",
      "HLADR: Cell: Std.Dev.",
      "MRC1: Nucleus: Mean",
      "MRC1: Nucleus: Median",
      "MRC1: Nucleus: Min",
      "MRC1: Nucleus: Max",
      "MRC1: Nucleus: Std.Dev.",
      "MRC1: Cytoplasm: Mean",
      "MRC1: Cytoplasm: Median",
      "MRC1: Cytoplasm: Min",
      "MRC1: Cytoplasm: Max",
      "MRC1: Cytoplasm: Std.Dev.",
      "MRC1: Membrane: Mean",
      "MRC1: Membrane: Median",
      "MRC1: Membrane: Min",
      "MRC1: Membrane: Max",
      "MRC1: Membrane: Std.Dev.",
      "MRC1: Cell: Mean",
      "MRC1: Cell: Median",
      "MRC1: Cell: Min",
      "MRC1: Cell: Max",
      "MRC1: Cell: Std.Dev.",
      "NKX: Nucleus: Mean",
      "NKX: Nucleus: Median",
      "NKX: Nucleus: Min",
      "NKX: Nucleus: Max",
      "NKX: Nucleus: Std.Dev.",
      "NKX: Cytoplasm: Mean",
      "NKX: Cytoplasm: Median",
      "NKX: Cytoplasm: Min",
      "NKX: Cytoplasm: Max",
      "NKX: Cytoplasm: Std.Dev.",
      "NKX: Membrane: Mean",
      "NKX: Membrane: Median",
      "NKX: Membrane: Min",
      "NKX: Membrane: Max",
      "NKX: Membrane: Std.Dev.",
      "NKX: Cell: Mean",
      "NKX: Cell: Median",
      "NKX: Cell: Min",
      "NKX: Cell: Max",
      "NKX: Cell: Std.Dev.",
      "PSMA: Nucleus: Mean",
      "PSMA: Nucleus: Median",
      "PSMA: Nucleus: Min",
      "PSMA: Nucleus: Max",
      "PSMA: Nucleus: Std.Dev.",
      "PSMA: Cytoplasm: Mean",
      "PSMA: Cytoplasm: Median",
      "PSMA: Cytoplasm: Min",
      "PSMA: Cytoplasm: Max",
      "PSMA: Cytoplasm: Std.Dev.",
      "PSMA: Membrane: Mean",
      "PSMA: Membrane: Median",
      "PSMA: Membrane: Min",
      "PSMA: Membrane: Max",
      "PSMA: Membrane: Std.Dev.",
      "PSMA: Cell: Mean",
      "PSMA: Cell: Median",
      "PSMA: Cell: Min",
      "PSMA: Cell: Max",
      "PSMA: Cell: Std.Dev."
    ]
  },
  "classifier": {
    "class": "RTrees",
    "statmodel": {
      "opencv_ml_rtrees": {
        "format": 3,
        "is_classifier": 1,
        "var_all": 134,
        "var_count": 133,
        "ord_var_count": 133,
        "cat_var_count": 1,
        "training_params": {
          "use_surrogates": 0,
          "max_categories": 10,
          "regression_accuracy": 0.0,
          "max_depth": 25,
          "min_sample_count": 10,
          "cross_validation_folds": 0,
          "nactive_vars": 0
        },
        "global_var_idx": 1,
        "var_idx": [
          0,
          1,
          2,
          3,
          4,
          5,
          6,
          7,
          8,
          9,
          10,
          11,
          12,
          13,
          14,
          15,
          16,
          17,
          18,
          19,
          20,
          21,
          22,
          23,
          24,
          25,
          26,
          27,
          28,
          29,
          30,
          31,
          32,
          33,
          34,
          35,
          36,
          37,
          38,
          39,
          40,
          41,
          42,
          43,
          44,
          45,
          46,
          47,
          48,
          49,
          50,
          51,
          52,
          53,
          54,
          55,
          56,
          57,
          58,
          59,
          60,
          61,
          62,
          63,
          64,
          65,
          66,
          67,
          68,
          69,
          70,
          71,
          72,
          73,
          74,
          75,
          76,
          77,
          78,
          79,
          80,
          81,
          82,
          83,
          84,
          85,
          86,
          87,
          88,
          89,
          90,
          91,
          92,
          93,
          94,
          95,
          96,
          97,
          98,
          99,
          100,
          101,
          102,
          103,
          104,
          105,
          106,
          107,
          108,
          109,
          110,
          111,
          112,
          113,
          114,
          115,
          116,
          117,
          118,
          119,
          120,
          121,
          122,
          123,
          124,
          125,
          126,
          127,
          128,
          129,
          130,
          131,
          132
        ],
        "var_type": [
          0,
          0,
          0,
          0,
          0,
          0,
          0,
          0,
          0,
          0,
          0,
          0,
          0,
          0,
          0,
          0,
          0,
          0,
          0,
          0,
          0,
          0,
          0,
          0,
          0,
          0,
          0,
          0,
          0,
          0,
          0,
          0,
          0,
          0,
          0,
          0,
          0,
          0,
          0,
          0,
          0,
          0,
          0,
          0,
          0,
          0,
          0,
          0,
          0,
          0,
          0,
          0,
          0,
          0,
          0,
          0,
          0,
          0,
          0,
          0,
          0,
          0,
          0,
          0,
          0,
          0,
          0,
          0,
          0,
          0,
          0,
          0,
          0,
          0,
          0,
          0,
          0,
          0,
          0,
          0,
          0,
          0,
          0,
          0,
          0,
          0,
          0,
          0,
          0,
          0,
          0,
          0,
          0,
          0,
          0,
          0,
          0,
          0,
          0,
          0,
          0,
          0,
          0,
          0,
          0,
          0,
          0,
          0,
          0,
          0,
          0,
          0,
          0,
          0,
          0,
          0,
          0,
          0,
          0,
          0,
          0,
          0,
          0,
          0,
          0,
          0,
          0,
          0,
          0,
          0,
          0,
          0,
          0,
          1
        ],
        "cat_ofs": [
          0,
          0,
          0,
          0,
          0,
          0,
          0,
          0,
          0,
          0,
          0,
          0,
          0,
          0,
          0,
          0,
          0,
          0,
          0,
          0,
          0,
          0,
          0,
          0,
          0,
          0,
          0,
          0,
          0,
          0,
          0,
          0,
          0,
          0,
          0,
          0,
          0,
          0,
          0,
          0,
          0,
          0,
          0,
          0,
          0,
          0,
          0,
          0,
          0,
          0,
          0,
          0,
          0,
          0,
          0,
          0,
          0,
          0,
          0,
          0,
          0,
          0,
          0,
          0,
          0,
          0,
          0,
          0,
          0,
          0,
          0,
          0,
          0,
          0,
          0,
          0,
          0,
          0,
          0,
          0,
          0,
          0,
          0,
          0,
          0,
          0,
          0,
          0,
          0,
          0,
          0,
          0,
          0,
          0,
          0,
          0,
          0,
          0,
          0,
          0,
          0,
          0,
          0,
          0,
          0,
          0,
          0,
          0,
          0,
          0,
          0,
          0,
          0,
          0,
          0,
          0,
          0,
          0,
          0,
          0,
          0,
          0,
          0,
          0,
          0,
          0,
          0,
          0,
          0,
          0,
          0,
          0,
          0,
          0,
          0,
          0,
          0,
          0,
          0,
          0,
          0,
          0,
          0,
          0,
          0,
          0,
          0,
          0,
          0,
          0,
          0,
          0,
          0,
          0,
          0,
          0,
          0,
          0,
          0,
          0,
          0,
          0,
          0,
          0,
          0,
          0,
          0,
          0,
          0,
          0,
          0,
          0,
          0,
          0,
          0,
          0,
          0,
          0,
          0,
          0,
          0,
          0,
          0,
          0,
          0,
          0,
          0,
          0,
          0,
          0,
          0,
          0,
          0,
          0,
          0,
          0,
          0,
          0,
          0,
          0,
          0,
          0,
          0,
          0,
          0,
          0,
          0,
          0,
          0,
          0,
          0,
          0,
          0,
          0,
          0,
          0,
          0,
          0,
          0,
          0,
          0,
          0,
          0,
          0,
          0,
          0,
          0,
          0,
          0,
          0,
          0,
          0,
          0,
          0,
          0,
          0,
          0,
          0,
          0,
          0,
          0,
          0,
          0,
          0,
          0,
          0,
          0,
          0,
          0,
          0,
          0,
          0,
          0,
          0,
          0,
          0,
          0,
          0,
          0,
          0,
          0,
          0,
          0,
          0,
          0,
          0
        ],
        "class_labels": [
          0,
          1,
          2,
          3,
          4,
          5,
          6,
          7
        ],
        "missing_subst": [
          0.0,
          0.0,
          0.0,
          0.0,
          0.0,
          0.0,
          0.0,
          0.0,
          0.0,
          0.0,
          0.0,
          0.0,
          0.0,
          0.0,
          0.0,
          0.0,
          0.0,
          0.0,
          0.0,
          0.0,
          0.0,
          0.0,
          0.0,
          0.0,
          0.0,
          0.0,
          0.0,
          0.0,
          0.0,
          0.0,
          0.0,
          0.0,
          0.0,
          0.0,
          0.0,
          0.0,
          0.0,
          0.0,
          0.0,
          0.0,
          0.0,
          0.0,
          0.0,
          0.0,
          0.0,
          0.0,
          0.0,
          0.0,
          0.0,
          0.0,
          0.0,
          0.0,
          0.0,
          0.0,
          0.0,
          0.0,
          0.0,
          0.0,
          0.0,
          0.0,
          0.0,
          0.0,
          0.0,
          0.0,
          0.0,
          0.0,
          0.0,
          0.0,
          0.0,
          0.0,
          0.0,
          0.0,
          0.0,
          0.0,
          0.0,
          0.0,
          0.0,
          0.0,
          0.0,
          0.0,
          0.0,
          0.0,
          0.0,
          0.0,
          0.0,
          0.0,
          0.0,
          0.0,
          0.0,
          0.0,
          0.0,
          0.0,
          0.0,
          0.0,
          0.0,
          0.0,
          0.0,
          0.0,
          0.0,
          0.0,
          0.0,
          0.0,
          0.0,
          0.0,
          0.0,
          0.0,
          0.0,
          0.0,
          0.0,
          0.0,
          0.0,
          0.0,
          0.0,
          0.0,
          0.0,
          0.0,
          0.0,
          0.0,
          0.0,
          0.0,
          0.0,
          0.0,
          0.0,
          0.0,
          0.0,
          0.0,
          0.0,
          0.0,
          0.0,
          0.0,
          0.0,
          0.0,
          0.0,
          0.0
        ],
        "oob_error": 0.0,
        "ntrees": 50,
        "trees": [
          {
            "nodes": [
              {
                "depth": 0,
                "value": 6.0,
                "norm_class_idx": 6,
                "splits": [
                  {
                    "var": 38,
                    "quality": 2.2562138366699219e+02,
                    "le": 1.1955499267578125e+02
                  }
                ]
              },
              {
                "depth": 1,
                "value": 6.0,
                "norm_class_idx": 6,
                "splits": [
                  {
                    "var": 128,
                    "quality": 1.9612899780273438e+02,
                    "le": 1.2345890808105469e+02
                  }
                ]
              },
              {
                "depth": 2,
                "value": 6.0,
                "norm_class_idx": 6,
                "splits": [
                  {
                    "var": 20,
                    "quality": 1.0690821075439453e+02,
                    "le": 4.5000000000000000e+00
                  }
                ]
              },
              {
                "depth": 3,
                "value": 7.0,
                "norm_class_idx": 7,
                "splits": [
                  {
                    "var": 69,
                    "quality": 6.7967170715332031e+01,
                    "le": 5.0000000000000000e-01
                  }
                ]
              },
              {
                "depth": 4,
                "value": 7.0,
                "norm_class_idx": 7,
                "splits": [
                  {
                    "var": 108,
                    "quality": 8.2939758300781250e+01,
                    "le": 2.0432338714599609e+00
                  }
                ]
              },
              {
                "depth": 5,
                "value": 7.0,
                "norm_class_idx": 7,
                "splits": [
                  {
                    "var": 41,
                    "quality": 7.4770561218261719e+01,
                    "le": 438.0
                  }
                ]
              },
              {
                "depth": 6,
                "value": 7.0,
                "norm_class_idx": 7,
                "splits": [
                  {
                    "var": 96,
                    "quality": 7.4599998474121094e+01,
                    "le": 1.0500000000000000e+01
                  }
                ]
              },
              {
                "depth": 7,
                "value": 7.0,
                "norm_class_idx": 7
              },
              {
                "depth": 7,
                "value": 7.0,
                "norm_class_idx": 7
              },
              {
                "depth": 6,
                "value": 0.0,
                "norm_class_idx": 0
              },
              {
                "depth": 5,
                "value": 6.0,
                "norm_class_idx": 6
              },
              {
                "depth": 4,
                "value": 1.0,
                "norm_class_idx": 1,
                "splits": [
                  {
                    "var": 41,
                    "quality": 1.5153845787048340e+01,
                    "le": 1.9450000000000000e+02
                  }
                ]
              },
              {
                "depth": 5,
                "value": 2.0,
                "norm_class_idx": 2,
                "splits": [
                  {
                    "var": 132,
                    "quality": 7.3333334922790527e+00,
                    "le": 2.1141681671142578e+01
                  }
                ]
              },
              {
                "depth": 6,
                "value": 6.0,
                "norm_class_idx": 6
              },
              {
                "depth": 6,
                "value": 2.0,
                "norm_class_idx": 2
              },
              {
                "depth": 5,
                "value": 1.0,
                "norm_class_idx": 1
              },
              {
                "depth": 3,
                "value": 6.0,
                "norm_class_idx": 6,
                "splits": [
                  {
                    "var": 97,
                    "quality": 8.1233421325683594e+01,
                    "le": 1.2507788658142090e+01
                  }
                ]
              },
              {
                "depth": 4,
                "value": 7.0,
                "norm_class_idx": 7,
                "splits": [
                  {
                    "var": 69,
                    "quality": 26.0,
                    "le": 17.0
                  }
                ]
              },
              {
                "depth": 5,
                "value": 7.0,
                "norm_class_idx": 7
              },
              {
                "depth": 5,
                "value": 2.0,
                "norm_class_idx": 2
              },
              {
                "depth": 4,
                "value": 6.0,
                "norm_class_idx": 6,
                "splits": [
                  {
                    "var": 106,
                    "quality": 87.0,
                    "le": 7.4150000000000000e+02
                  }
                ]
              },
              {
                "depth": 5,
                "value": 6.0,
                "norm_class_idx": 6
              },
              {
                "depth": 5,
                "value": 3.0,
                "norm_class_idx": 3
              },
              {
                "depth": 2,
                "value": 6.0,
                "norm_class_idx": 6,
                "splits": [
                  {
                    "var": 56,
                    "quality": 1.3696778869628906e+02,
                    "le": 129.0
                  }
                ]
              },
              {
                "depth": 3,
                "value": 6.0,
                "norm_class_idx": 6,
                "splits": [
                  {
                    "var": 113,
                    "quality": 1.4475828552246094e+02,
                    "le": 4.8219610595703125e+02
                  }
                ]
              },
              {
                "depth": 4,
                "value": 6.0,
                "norm_class_idx": 6,
                "splits": [
                  {
                    "var": 31,
                    "quality": 1.4015527343750000e+02,
                    "le": 488.0
                  }
                ]
              },
              {
                "depth": 5,
                "value": 6.0,
                "norm_class_idx": 6,
                "splits": [
                  {
                    "var": 81,
                    "quality": 1.4765591430664063e+02,
                    "le": 1.7850000000000000e+02
                  }
                ]
              },
              {
                "depth": 6,
                "value": 6.0,
                "norm_class_idx": 6,
                "splits": [
                  {
                    "var": 93,
                    "quality": 1.5014285278320313e+02,
                    "le": 4.8155932426452637e+00
                  }
                ]
              },
              {
                "depth": 7,
                "value": 0.0,
                "norm_class_idx": 0
              },
              {
                "depth": 7,
                "value": 6.0,
                "norm_class_idx": 6
              },
              {
                "depth": 6,
                "value": 4.0,
                "norm_class_idx": 4
              },
              {
                "depth": 5,
                "value": 0.0,
                "norm_class_idx": 0
              },
              {
                "depth": 4,
                "value": 4.0,
                "norm_class_idx": 4
              },
              {
                "depth": 3,
                "value": 2.0,
                "norm_class_idx": 2,
                "splits": [
                  {
                    "var": 71,
                    "quality": 1.3800000190734863e+01,
                    "le": 453.0
                  }
                ]
              },
              {
                "depth": 4,
                "value": 5.0,
                "norm_class_idx": 5
              },
              {
                "depth": 4,
                "value": 2.0,
                "norm_class_idx": 2,
                "splits": [
                  {
                    "var": 38,
                    "quality": 1.1500000000000000e+01,
                    "le": 4.9752231597900391e+01
                  }
                ]
              },
              {
                "depth": 5,
                "value": 2.0,
                "norm_class_idx": 2,
                "splits": [
                  {
                    "var": 119,
                    "quality": 11.0,
                    "le": 8.4750000000000000e+01
                  }
                ]
              },
              {
                "depth": 6,
                "value": 1.0,
                "norm_class_idx": 1
              },
              {
                "depth": 6,
                "value": 2.0,
                "norm_class_idx": 2
              },
              {
                "depth": 5,
                "value": 1.0,
                "norm_class_idx": 1
              },
              {
                "depth": 1,
                "value": 3.0,
                "norm_class_idx": 3,
                "splits": [
                  {
                    "var": 124,
                    "quality": 1.0925531768798828e+02,
                    "le": 4.9250000000000000e+01
                  }
                ]
              },
              {
                "depth": 2,
                "value": 3.0,
                "norm_class_idx": 3
              },
              {
                "depth": 2,
                "value": 0.0,
                "norm_class_idx": 0,
                "splits": [
                  {
                    "var": 24,
                    "quality": 4.5259258270263672e+01,
                    "le": 1.5000000000000000e+00
                  }
                ]
              },
              {
                "depth": 3,
                "value": 5.0,
                "norm_class_idx": 5
              },
              {
                "depth": 3,
                "value": 0.0,
                "norm_class_idx": 0,
                "splits": [
                  {
                    "var": 63,
                    "quality": 5.4049999237060547e+01,
                    "le": 2.6048557281494141e+01
                  }
                ]
              },
              {
                "depth": 4,
                "value": 0.0,
                "norm_class_idx": 0
              },
              {
                "depth": 4,
                "value": 1.0,
                "norm_class_idx": 1,
                "splits": [
                  {
                    "var": 12,
                    "quality": 2.0179027557373047e+01,
                    "le": 4.8261636495590210e-01
                  }
                ]
              },
              {
                "depth": 5,
                "value": 3.0,
                "norm_class_idx": 3,
                "splits": [
                  {
                    "var": 58,
                    "quality": 1.2584615707397461e+01,
                    "le": 9.3006668090820313e+01
                  }
                ]
              },
              {
                "depth": 6,
                "value": 5.0,
                "norm_class_idx": 5
              },
              {
                "depth": 6,
                "value": 3.0,
                "norm_class_idx": 3,
                "splits": [
                  {
                    "var": 124,
                    "quality": 13.0,
                    "le": 1.5250000000000000e+02
                  }
                ]
              },
              {
                "depth": 7,
                "value": 3.0,
                "norm_class_idx": 3
              },
              {
                "depth": 7,
                "value": 1.0,
                "norm_class_idx": 1
              },
              {
                "depth": 5,
                "value": 1.0,
                "norm_class_idx": 1,
                "splits": [
                  {
                    "var": 1,
                    "quality": 1.5125000000000000e+01,
                    "le": 3.7257099151611328e+01
                  }
                ]
              },
              {
                "depth": 6,
                "value": 1.0,
                "norm_class_idx": 1,
                "splits": [
                  {
                    "var": 38,
                    "quality": 16.0,
                    "le": 3.5453799438476563e+02
                  }
                ]
              },
              {
                "depth": 7,
                "value": 1.0,
                "norm_class_idx": 1
              },
              {
                "depth": 7,
                "value": 5.0,
                "norm_class_idx": 5
              },
              {
                "depth": 6,
                "value": 0.0,
                "norm_class_idx": 0
              }
            ]
          },
          {
            "nodes": [
              {
                "depth": 0,
                "value": 6.0,
                "norm_class_idx": 6,
                "splits": [
                  {
                    "var": 111,
                    "quality": 2.6155554199218750e+02,
                    "le": 7.1500000000000000e+01
                  }
                ]
              },
              {
                "depth": 1,
                "value": 7.0,
                "norm_class_idx": 7,
                "splits": [
                  {
                    "var": 49,
                    "quality": 1.2909455871582031e+02,
                    "le": 5.4125000000000000e+02
                  }
                ]
              },
              {
                "depth": 2,
                "value": 7.0,
                "norm_class_idx": 7,
                "splits": [
                  {
                    "var": 61,
                    "quality": 9.6484878540039063e+01,
                    "le": 156.0
                  }
                ]
              },
              {
                "depth": 3,
                "value": 7.0,
                "norm_class_idx": 7,
                "splits": [
                  {
                    "var": 130,
                    "quality": 8.7634330749511719e+01,
                    "le": 2.4500000000000000e+01
                  }
                ]
              },
              {
                "depth": 4,
                "value": 7.0,
                "norm_class_idx": 7,
                "splits": [
                  {
                    "var": 57,
                    "quality": 8.3536506652832031e+01,
                    "le": 1.5889188766479492e+01
                  }
                ]
              },
              {
                "depth": 5,
                "value": 7.0,
                "norm_class_idx": 7,
                "splits": [
                  {
                    "var": 118,
                    "quality": 8.4209304809570313e+01,
                    "le": 2.5220382690429688e+02
                  }
                ]
              },
              {
                "depth": 6,
                "value": 7.0,
                "norm_class_idx": 7,
                "splits": [
                  {
                    "var": 11,
                    "quality": 86.0,
                    "le": 7.8775024414062500e+00
                  }
                ]
              },
              {
                "depth": 7,
                "value": 0.0,
                "norm_class_idx": 0
              },
              {
                "depth": 7,
                "value": 7.0,
                "norm_class_idx": 7
              },
              {
                "depth": 6,
                "value": 4.0,
                "norm_class_idx": 4
              },
              {
                "depth": 5,
                "value": 3.0,
                "norm_class_idx": 3,
                "splits": [
                  {
                    "var": 77,
                    "quality": 1.0727272987365723e+01,
                    "le": 6.1269536018371582e+00
                  }
                ]
              },
              {
                "depth": 6,
                "value": 3.0,
                "norm_class_idx": 3,
                "splits": [
                  {
                    "var": 34,
                    "quality": 11.0,
                    "le": 4.6250000000000000e+02
                  }
                ]
              },
              {
                "depth": 7,
                "value": 0.0,
                "norm_class_idx": 0
              },
              {
                "depth": 7,
                "value": 3.0,
                "norm_class_idx": 3
              },
              {
                "depth": 6,
                "value": 5.0,
                "norm_class_idx": 5
              },
              {
                "depth": 4,
                "value": 0.0,
                "norm_class_idx": 0,
                "splits": [
                  {
                    "var": 48,
                    "quality": 3.6269378662109375e+01,
                    "le": 1.1436224937438965e+01
                  }
                ]
              },
              {
                "depth": 5,
                "value": 4.0,
                "norm_class_idx": 4,
                "splits": [
                  {
                    "var": 88,
                    "quality": 2.2166666030883789e+01,
                    "le": 1.6455411911010742e+01
                  }
                ]
              },
              {
                "depth": 6,
                "value": 7.0,
                "norm_class_idx": 7,
                "splits": [
                  {
                    "var": 81,
                    "quality": 12.0,
                    "le": 59.0
                  }
                ]
              },
              {
                "depth": 7,
                "value": 7.0,
                "norm_class_idx": 7
              },
              {
                "depth": 7,
                "value": 6.0,
                "norm_class_idx": 6
              },
              {
                "depth": 6,
                "value": 4.0,
                "norm_class_idx": 4
              },
              {
                "depth": 5,
                "value": 0.0,
                "norm_class_idx": 0,
                "splits": [
                  {
                    "var": 78,
                    "quality": 3.9181819915771484e+01,
                    "le": 9.4448356628417969e+00
                  }
                ]
              },
              {
                "depth": 6,
                "value": 0.0,
                "norm_class_idx": 0,
                "splits": [
                  {
                    "var": 10,
                    "quality": 32.0,
                    "le": 1.6532142639160156e+01
                  }
                ]
              },
              {
                "depth": 7,
                "value": 0.0,
                "norm_class_idx": 0
              },
              {
                "depth": 7,
                "value": 1.0,
                "norm_class_idx": 1
              },
              {
                "depth": 6,
                "value": 5.0,
                "norm_class_idx": 5
              },
              {
                "depth": 3,
                "value": 1.0,
                "norm_class_idx": 1,
                "splits": [
                  {
                    "var": 46,
                    "quality": 5.8894588470458984e+01,
                    "le": 1.2500000000000000e+01
                  }
                ]
              },
              {
                "depth": 4,
                "value": 2.0,
                "norm_class_idx": 2,
                "splits": [
                  {
                    "var": 9,
                    "quality": 27.0,
                    "le": 9.9320244789123535e-01
                  }
                ]
              },
              {
                "depth": 5,
                "value": 2.0,
                "norm_class_idx": 2
              },
              {
                "depth": 5,
                "value": 4.0,
                "norm_class_idx": 4
              },
              {
                "depth": 4,
                "value": 1.0,
                "norm_class_idx": 1,
                "splits": [
                  {
                    "var": 72,
                    "quality": 4.3789779663085938e+01,
                    "le": 5.1841888427734375e+01
                  }
                ]
              },
              {
                "depth": 5,
                "value": 5.0,
                "norm_class_idx": 5,
                "splits": [
                  {
                    "var": 37,
                    "quality": 9.2727270126342773e+00,
                    "le": 4.4101051330566406e+01
                  }
                ]
              },
              {
                "depth": 6,
                "value": 3.0,
                "norm_class_idx": 3
              },
              {
                "depth": 6,
                "value": 5.0,
                "norm_class_idx": 5,
                "splits": [
                  {
                    "var": 116,
                    "quality": 9.6666669845581055e+00,
                    "le": 3.0650000000000000e+02
                  }
                ]
              },
              {
                "depth": 7,
                "value": 0.0,
                "norm_class_idx": 0
              },
              {
                "depth": 7,
                "value": 5.0,
                "norm_class_idx": 5
              },
              {
                "depth": 5,
                "value": 1.0,
                "norm_class_idx": 1,
                "splits": [
                  {
                    "var": 30,
                    "quality": 4.3310344696044922e+01,
                    "le": 3.6500000000000000e+01
                  }
                ]
              },
              {
                "depth": 6,
                "value": 1.0,
                "norm_class_idx": 1,
                "splits": [
                  {
                    "var": 11,
                    "quality": 4.3939392089843750e+01,
                    "le": 1.2796855926513672e+01
                  }
                ]
              },
              {
                "depth": 7,
                "value": 1.0,
                "norm_class_idx": 1,
                "splits": [
                  {
                    "var": 116,
                    "quality": 4.4859905242919922e+01,
                    "le": 4.9850000000000000e+02
                  }
                ]
              },
              {
                "depth": 8,
                "value": 1.0,
                "norm_class_idx": 1,
                "splits": [
                  {
                    "var": 70,
                    "quality": 4.2177776336669922e+01,
                    "le": 4.7500000000000000e+01
                  }
                ]
              },
              {
                "depth": 9,
                "value": 1.0,
                "norm_class_idx": 1,
                "splits": [
                  {
                    "var": 98,
                    "quality": 4.3045455932617188e+01,
                    "le": 5.6908053159713745e-01
                  }
                ]
              },
              {
                "depth": 10,
                "value": 1.0,
                "norm_class_idx": 1,
                "splits": [
                  {
                    "var": 123,
                    "quality": 4.2285713195800781e+01,
                    "le": 9.4230453491210938e+01
                  }
                ]
              },
              {
                "depth": 11,
                "value": 1.0,
                "norm_class_idx": 1
              },
              {
                "depth": 11,
                "value": 1.0,
                "norm_class_idx": 1
              },
              {
                "depth": 10,
                "value": 2.0,
                "norm_class_idx": 2
              },
              {
                "depth": 9,
                "value": 0.0,
                "norm_class_idx": 0
              },
              {
                "depth": 8,
                "value": 1.0,
                "norm_class_idx": 1
              },
              {
                "depth": 7,
                "value": 3.0,
                "norm_class_idx": 3
              },
              {
                "depth": 6,
                "value": 2.0,
                "norm_class_idx": 2
              },
              {
                "depth": 2,
                "value": 3.0,
                "norm_class_idx": 3,
                "splits": [
                  {
                    "var": 64,
                    "quality": 80.0,
                    "le": 2.7500000000000000e+00
                  }
                ]
              },
              {
                "depth": 3,
                "value": 0.0,
                "norm_class_idx": 0
              },
              {
                "depth": 3,
                "value": 3.0,
                "norm_class_idx": 3
              },
              {
                "depth": 1,
                "value": 6.0,
                "norm_class_idx": 6,
                "splits": [
                  {
                    "var": 83,
                    "quality": 2.0272828674316406e+02,
                    "le": 1.6368114471435547e+01
                  }
                ]
              },
              {
                "depth": 2,
                "value": 6.0,
                "norm_class_idx": 6,
                "splits": [
                  {
                    "var": 71,
                    "quality": 2.0368273925781250e+02,
                    "le": 262.0
                  }
                ]
              },
              {
                "depth": 3,
                "value": 6.0,
                "norm_class_idx": 6,
                "splits": [
                  {
                    "var": 102,
                    "quality": 2.1760934448242188e+02,
                    "le": 1.0638017272949219e+02
                  }
                ]
              },
              {
                "depth": 4,
                "value": 6.0,
                "norm_class_idx": 6,
                "splits": [
                  {
                    "var": 130,
                    "quality": 2.0740971374511719e+02,
                    "le": 5.5000000000000000e+00
                  }
                ]
              },
              {
                "depth": 5,
                "value": 6.0,
                "norm_class_idx": 6
              },
              {
                "depth": 5,
                "value": 6.0,
                "norm_class_idx": 6,
                "splits": [
                  {
                    "var": 130,
                    "quality": 2.0404081726074219e+02,
                    "le": 75.0
                  }
                ]
              },
              {
                "depth": 6,
                "value": 6.0,
                "norm_class_idx": 6
              },
              {
                "depth": 6,
                "value": 6.0,
                "norm_class_idx": 6,
                "splits": [
                  {
                    "var": 130,
                    "quality": 49.0,
                    "le": 77.0
                  }
                ]
              },
              {
                "depth": 7,
                "value": 7.0,
                "norm_class_idx": 7
              },
              {
                "depth": 7,
                "value": 6.0,
                "norm_class_idx": 6
              },
              {
                "depth": 4,
                "value": 3.0,
                "norm_class_idx": 3,
                "splits": [
                  {
                    "var": 19,
                    "quality": 14.0,
                    "le": 6.7750000000000000e+01
                  }
                ]
              },
              {
                "depth": 5,
                "value": 3.0,
                "norm_class_idx": 3
              },
              {
                "depth": 5,
                "value": 6.0,
                "norm_class_idx": 6
              },
              {
                "depth": 3,
                "value": 6.0,
                "norm_class_idx": 6,
                "splits": [
                  {
                    "var": 42,
                    "quality": 9.6666669845581055e+00,
                    "le": 6.8859519958496094e+01
                  }
                ]
              },
              {
                "depth": 4,
                "value": 6.0,
                "norm_class_idx": 6
              },
              {
                "depth": 4,
                "value": 1.0,
                "norm_class_idx": 1
              },
              {
                "depth": 2,
                "value": 5.0,
                "norm_class_idx": 5
              }
            ]
          },
          {
            "nodes": [
              {
                "depth": 0,
                "value": 6.0,
                "norm_class_idx": 6,
                "splits": [
                  {
                    "var": 36,
                    "quality": 2.1523092651367188e+02,
                    "le": 2.9250000000000000e+02
                  }
                ]
              },
              {
                "depth": 1,
                "value": 6.0,
                "norm_class_idx": 6,
                "splits": [
                  {
                    "var": 71,
                    "quality": 1.9393060302734375e+02,
                    "le": 4.8650000000000000e+02
                  }
                ]
              },
              {
                "depth": 2,
                "value": 6.0,
                "norm_class_idx": 6,
                "splits": [
                  {
                    "var": 107,
                    "quality": 2.0350509643554688e+02,
                    "le": 9.9025285243988037e-01
                  }
                ]
              },
              {
                "depth": 3,
                "value": 6.0,
                "norm_class_idx": 6,
                "splits": [
                  {
                    "var": 94,
                    "quality": 9.7311691284179688e+01,
                    "le": 5.0000000000000000e-01
                  }
                ]
              },
              {
                "depth": 4,
                "value": 7.0,
                "norm_class_idx": 7,
                "splits": [
                  {
                    "var": 96,
                    "quality": 9.6886062622070313e+01,
                    "le": 46.0
                  }
                ]
              },
              {
                "depth": 5,
                "value": 7.0,
                "norm_class_idx": 7,
                "splits": [
                  {
                    "var": 82,
                    "quality": 9.1285713195800781e+01,
                    "le": 7.3019881248474121e+00
                  }
                ]
              },
              {
                "depth": 6,
                "value": 7.0,
                "norm_class_idx": 7,
                "splits": [
                  {
                    "var": 46,
                    "quality": 82.0,
                    "le": 236.0
                  }
                ]
              },
              {
                "depth": 7,
                "value": 7.0,
                "norm_class_idx": 7
              },
              {
                "depth": 7,
                "value": 0.0,
                "norm_class_idx": 0
              },
              {
                "depth": 6,
                "value": 4.0,
                "norm_class_idx": 4,
                "splits": [
                  {
                    "var": 88,
                    "quality": 2.4180952072143555e+01,
                    "le": 3.2344478607177734e+01
                  }
                ]
              },
              {
                "depth": 7,
                "value": 5.0,
                "norm_class_idx": 5
              },
              {
                "depth": 7,
                "value": 4.0,
                "norm_class_idx": 4,
                "splits": [
                  {
                    "var": 91,
                    "quality": 1.8600000381469727e+01,
                    "le": 262.0
                  }
                ]
              },
              {
                "depth": 8,
                "value": 4.0,
                "norm_class_idx": 4
              },
              {
                "depth": 8,
                "value": 4.0,
                "norm_class_idx": 4
              },
              {
                "depth": 5,
                "value": 6.0,
                "norm_class_idx": 6,
                "splits": [
                  {
                    "var": 83,
                    "quality": 39.0,
                    "le": 1.6618827819824219e+02
                  }
                ]
              },
              {
                "depth": 6,
                "value": 6.0,
                "norm_class_idx": 6
              },
              {
                "depth": 6,
                "value": 4.0,
                "norm_class_idx": 4
              },
              {
                "depth": 4,
                "value": 6.0,
                "norm_class_idx": 6
              },
              {
                "depth": 3,
                "value": 6.0,
                "norm_class_idx": 6,
                "splits": [
                  {
                    "var": 96,
                    "quality": 1.4963226318359375e+02,
                    "le": 7.5500000000000000e+01
                  }
                ]
              },
              {
                "depth": 4,
                "value": 7.0,
                "norm_class_idx": 7
              },
              {
                "depth": 4,
                "value": 6.0,
                "norm_class_idx": 6,
                "splits": [
                  {
                    "var": 106,
                    "quality": 155.0,
                    "le": 1.1855000000000000e+03
                  }
                ]
              },
              {
                "depth": 5,
                "value": 6.0,
                "norm_class_idx": 6
              },
              {
                "depth": 5,
                "value": 3.0,
                "norm_class_idx": 3
              },
              {
                "depth": 2,
                "value": 2.0,
                "norm_class_idx": 2,
                "splits": [
                  {
                    "var": 38,
                    "quality": 3.4311904907226563e+01,
                    "le": 1.4888148307800293e+00
                  }
                ]
              },
              {
                "depth": 3,
                "value": 2.0,
                "norm_class_idx": 2,
                "splits": [
                  {
                    "var": 97,
                    "quality": 3.1266666412353516e+01,
                    "le": 4.9400955200195313e+01
                  }
                ]
              },
              {
                "depth": 4,
                "value": 2.0,
                "norm_class_idx": 2,
                "splits": [
                  {
                    "var": 9,
                    "quality": 28.0,
                    "le": 9.7263395786285400e-01
                  }
                ]
              },
              {
                "depth": 5,
                "value": 2.0,
                "norm_class_idx": 2
              },
              {
                "depth": 5,
                "value": 1.0,
                "norm_class_idx": 1
              },
              {
                "depth": 4,
                "value": 6.0,
                "norm_class_idx": 6
              },
              {
                "depth": 3,
                "value": 1.0,
                "norm_class_idx": 1,
                "splits": [
                  {
                    "var": 116,
                    "quality": 1.4133333206176758e+01,
                    "le": 165.0
                  }
                ]
              },
              {
                "depth": 4,
                "value": 1.0,
                "norm_class_idx": 1
              },
              {
                "depth": 4,
                "value": 1.0,
                "norm_class_idx": 1,
                "splits": [
                  {
                    "var": 20,
                    "quality": 9.1999998092651367e+00,
                    "le": 6.5000000000000000e+00
                  }
                ]
              },
              {
                "depth": 5,
                "value": 1.0,
                "norm_class_idx": 1
              },
              {
                "depth": 5,
                "value": 2.0,
                "norm_class_idx": 2
              },
              {
                "depth": 1,
                "value": 3.0,
                "norm_class_idx": 3,
                "splits": [
                  {
                    "var": 36,
                    "quality": 9.5537261962890625e+01,
                    "le": 1475.0
                  }
                ]
              },
              {
                "depth": 2,
                "value": 0.0,
                "norm_class_idx": 0,
                "splits": [
                  {
                    "var": 53,
                    "quality": 4.4587482452392578e+01,
                    "le": 2.1226081252098083e-01
                  }
                ]
              },
              {
                "depth": 3,
                "value": 0.0,
                "norm_class_idx": 0,
                "splits": [
                  {
                    "var": 32,
                    "quality": 29.0,
                    "le": 3.1188405990600586e+01
                  }
                ]
              },
              {
                "depth": 4,
                "value": 5.0,
                "norm_class_idx": 5
              },
              {
                "depth": 4,
                "value": 0.0,
                "norm_class_idx": 0
              },
              {
                "depth": 3,
                "value": 3.0,
                "norm_class_idx": 3,
                "splits": [
                  {
                    "var": 123,
                    "quality": 3.1923076629638672e+01,
                    "le": 2.8496643066406250e+02
                  }
                ]
              },
              {
                "depth": 4,
                "value": 3.0,
                "norm_class_idx": 3,
                "splits": [
                  {
                    "var": 120,
                    "quality": 2.7283550262451172e+01,
                    "le": 5.9500000000000000e+01
                  }
                ]
              },
              {
                "depth": 5,
                "value": 3.0,
                "norm_class_idx": 3,
                "splits": [
                  {
                    "var": 49,
                    "quality": 2.3100000381469727e+01,
                    "le": 235.0
                  }
                ]
              },
              {
                "depth": 6,
                "value": 0.0,
                "norm_class_idx": 0,
                "splits": [
                  {
                    "var": 48,
                    "quality": 8.4201679229736328e+00,
                    "le": 6.2835060119628906e+01
                  }
                ]
              },
              {
                "depth": 7,
                "value": 5.0,
                "norm_class_idx": 5
              },
              {
                "depth": 7,
                "value": 0.0,
                "norm_class_idx": 0,
                "splits": [
                  {
                    "var": 123,
                    "quality": 1.0942856788635254e+01,
                    "le": 6.0369110107421875e+01
                  }
                ]
              },
              {
                "depth": 8,
                "value": 7.0,
                "norm_class_idx": 7
              },
              {
                "depth": 8,
                "value": 0.0,
                "norm_class_idx": 0
              },
              {
                "depth": 6,
                "value": 3.0,
                "norm_class_idx": 3,
                "splits": [
                  {
                    "var": 29,
                    "quality": 20.0,
                    "le": 82.0
                  }
                ]
              },
              {
                "depth": 7,
                "value": 3.0,
                "norm_class_idx": 3
              },
              {
                "depth": 7,
                "value": 0.0,
                "norm_class_idx": 0
              },
              {
                "depth": 5,
                "value": 1.0,
                "norm_class_idx": 1,
                "splits": [
                  {
                    "var": 34,
                    "quality": 1.7333333969116211e+01,
                    "le": 243.0
                  }
                ]
              },
              {
                "depth": 6,
                "value": 1.0,
                "norm_class_idx": 1
              },
              {
                "depth": 6,
                "value": 0.0,
                "norm_class_idx": 0
              },
              {
                "depth": 4,
                "value": 5.0,
                "norm_class_idx": 5
              },
              {
                "depth": 2,
                "value": 3.0,
                "norm_class_idx": 3,
                "splits": [
                  {
                    "var": 120,
                    "quality": 71.0,
                    "le": 4.4500000000000000e+01
                  }
                ]
              },
              {
                "depth": 3,
                "value": 3.0,
                "norm_class_idx": 3
              },
              {
                "depth": 3,
                "value": 0.0,
                "norm_class_idx": 0
              }
            ]
          },
          {
            "nodes": [
              {
                "depth": 0,
                "value": 6.0,
                "norm_class_idx": 6,
                "splits": [
                  {
                    "var": 35,
                    "quality": 2.0948837280273438e+02,
                    "le": 189.0
                  }
                ]
              },
              {
                "depth": 1,
                "value": 6.0,
                "norm_class_idx": 6,
                "splits": [
                  {
                    "var": 47,
                    "quality": 1.9069161987304688e+02,
                    "le": 6.0566783905029297e+01
                  }
                ]
              },
              {
                "depth": 2,
                "value": 6.0,
                "norm_class_idx": 6,
                "splits": [
                  {
                    "var": 106,
                    "quality": 2.0721469116210938e+02,
                    "le": 5.0000000000000000e-01
                  }
                ]
              },
              {
                "depth": 3,
                "value": 7.0,
                "norm_class_idx": 7,
                "splits": [
                  {
                    "var": 108,
                    "quality": 1.3453947448730469e+02,
                    "le": 8.5461688041687012e-01
                  }
                ]
              },
              {
                "depth": 4,
                "value": 7.0,
                "norm_class_idx": 7,
                "splits": [
                  {
                    "var": 58,
                    "quality": 1.0135950469970703e+02,
                    "le": 5.1982731819152832e+00
                  }
                ]
              },
              {
                "depth": 5,
                "value": 7.0,
                "norm_class_idx": 7,
                "splits": [
                  {
                    "var": 92,
                    "quality": 9.9749137878417969e+01,
                    "le": 7.3180360794067383e+00
                  }
                ]
              },
              {
                "depth": 6,
                "value": 7.0,
                "norm_class_idx": 7,
                "splits": [
                  {
                    "var": 33,
                    "quality": 97.0,
                    "le": 3.5984887695312500e+02
                  }
                ]
              },
              {
                "depth": 7,
                "value": 7.0,
                "norm_class_idx": 7
              },
              {
                "depth": 7,
                "value": 3.0,
                "norm_class_idx": 3
              },
              {
                "depth": 6,
                "value": 4.0,
                "norm_class_idx": 4,
                "splits": [
                  {
                    "var": 34,
                    "quality": 9.3333330154418945e+00,
                    "le": 5.2500000000000000e+00
                  }
                ]
              },
              {
                "depth": 7,
                "value": 4.0,
                "norm_class_idx": 4
              },
              {
                "depth": 7,
                "value": 5.0,
                "norm_class_idx": 5
              },
              {
                "depth": 5,
                "value": 2.0,
                "norm_class_idx": 2,
                "splits": [
                  {
                    "var": 113,
                    "quality": 2.9989246368408203e+01,
                    "le": 3.9258221435546875e+02
                  }
                ]
              },
              {
                "depth": 6,
                "value": 2.0,
                "norm_class_idx": 2,
                "splits": [
                  {
                    "var": 4,
                    "quality": 2.3235294342041016e+01,
                    "le": 9.1591978073120117e+00
                  }
                ]
              },
              {
                "depth": 7,
                "value": 2.0,
                "norm_class_idx": 2,
                "splits": [
                  {
                    "var": 60,
                    "quality": 1.3515151977539063e+01,
                    "le": 5.0000000000000000e-01
                  }
                ]
              },
              {
                "depth": 8,
                "value": 1.0,
                "norm_class_idx": 1
              },
              {
                "depth": 8,
                "value": 2.0,
                "norm_class_idx": 2,
                "splits": [
                  {
                    "var": 76,
                    "quality": 10.0,
                    "le": 9.4500000000000000e+01
                  }
                ]
              },
              {
                "depth": 9,
                "value": 2.0,
                "norm_class_idx": 2
              },
              {
                "depth": 9,
                "value": 1.0,
                "norm_class_idx": 1
              },
              {
                "depth": 7,
                "value": 2.0,
                "norm_class_idx": 2
              },
              {
                "depth": 6,
                "value": 4.0,
                "norm_class_idx": 4,
                "splits": [
                  {
                    "var": 4,
                    "quality": 12.0,
                    "le": 7.9813985824584961e+00
                  }
                ]
              },
              {
                "depth": 7,
                "value": 5.0,
                "norm_class_idx": 5
              },
              {
                "depth": 7,
                "value": 4.0,
                "norm_class_idx": 4
              },
              {
                "depth": 4,
                "value": 6.0,
                "norm_class_idx": 6,
                "splits": [
                  {
                    "var": 123,
                    "quality": 76.0,
                    "le": 7.9023071289062500e+02
                  }
                ]
              },
              {
                "depth": 5,
                "value": 6.0,
                "norm_class_idx": 6
              },
              {
                "depth": 5,
                "value": 4.0,
                "norm_class_idx": 4
              },
              {
                "depth": 3,
                "value": 6.0,
                "norm_class_idx": 6,
                "splits": [
                  {
                    "var": 112,
                    "quality": 1.5715480041503906e+02,
                    "le": 1.2996963500976563e+01
                  }
                ]
              },
              {
                "depth": 4,
                "value": 7.0,
                "norm_class_idx": 7,
                "splits": [
                  {
                    "var": 53,
                    "quality": 11.0,
                    "le": 7.5460449218750000e+01
                  }
                ]
              },
              {
                "depth": 5,
                "value": 7.0,
                "norm_class_idx": 7
              },
              {
                "depth": 5,
                "value": 1.0,
                "norm_class_idx": 1
              },
              {
                "depth": 4,
                "value": 6.0,
                "norm_class_idx": 6,
                "splits": [
                  {
                    "var": 62,
                    "quality": 1.5416250610351563e+02,
                    "le": 2.8812631225585938e+02
                  }
                ]
              },
              {
                "depth": 5,
                "value": 6.0,
                "norm_class_idx": 6,
                "splits": [
                  {
                    "var": 105,
                    "quality": 1.5801274108886719e+02,
                    "le": 218.0
                  }
                ]
              },
              {
                "depth": 6,
                "value": 6.0,
                "norm_class_idx": 6,
                "splits": [
                  {
                    "var": 122,
                    "quality": 157.0,
                    "le": 1.9061251831054688e+02
                  }
                ]
              },
              {
                "depth": 7,
                "value": 6.0,
                "norm_class_idx": 6
              },
              {
                "depth": 7,
                "value": 5.0,
                "norm_class_idx": 5
              },
              {
                "depth": 6,
                "value": 3.0,
                "norm_class_idx": 3
              },
              {
                "depth": 5,
                "value": 2.0,
                "norm_class_idx": 2
              },
              {
                "depth": 2,
                "value": 1.0,
                "norm_class_idx": 1,
                "splits": [
                  {
                    "var": 59,
                    "quality": 5.2797424316406250e+01,
                    "le": 41.0
                  }
                ]
              },
              {
                "depth": 3,
                "value": 0.0,
                "norm_class_idx": 0,
                "splits": [
                  {
                    "var": 131,
                    "quality": 3.6907562255859375e+01,
                    "le": 6.2050000000000000e+02
                  }
                ]
              },
              {
                "depth": 4,
                "value": 0.0,
                "norm_class_idx": 0,
                "splits": [
                  {
                    "var": 126,
                    "quality": 3.6285713195800781e+01,
                    "le": 161.0
                  }
                ]
              },
              {
                "depth": 5,
                "value": 3.0,
                "norm_class_idx": 3
              },
              {
                "depth": 5,
                "value": 0.0,
                "norm_class_idx": 0,
                "splits": [
                  {
                    "var": 53,
                    "quality": 3.6307693481445313e+01,
                    "le": 1.0384278869628906e+02
                  }
                ]
              },
              {
                "depth": 6,
                "value": 0.0,
                "norm_class_idx": 0,
                "splits": [
                  {
                    "var": 42,
                    "quality": 3.4714286804199219e+01,
                    "le": 1.3730944824218750e+02
                  }
                ]
              },
              {
                "depth": 7,
                "value": 0.0,
                "norm_class_idx": 0
              },
              {
                "depth": 7,
                "value": 0.0,
                "norm_class_idx": 0
              },
              {
                "depth": 6,
                "value": 1.0,
                "norm_class_idx": 1
              },
              {
                "depth": 4,
                "value": 5.0,
                "norm_class_idx": 5,
                "splits": [
                  {
                    "var": 51,
                    "quality": 1.4333333015441895e+01,
                    "le": 352.0
                  }
                ]
              },
              {
                "depth": 5,
                "value": 4.0,
                "norm_class_idx": 4
              },
              {
                "depth": 5,
                "value": 5.0,
                "norm_class_idx": 5,
                "splits": [
                  {
                    "var": 78,
                    "quality": 1.4800000190734863e+01,
                    "le": 3.0317356586456299e+00
                  }
                ]
              },
              {
                "depth": 6,
                "value": 1.0,
                "norm_class_idx": 1
              },
              {
                "depth": 6,
                "value": 5.0,
                "norm_class_idx": 5,
                "splits": [
                  {
                    "var": 16,
                    "quality": 15.0,
                    "le": 4.6950000000000000e+02
                  }
                ]
              },
              {
                "depth": 7,
                "value": 5.0,
                "norm_class_idx": 5
              },
              {
                "depth": 7,
                "value": 0.0,
                "norm_class_idx": 0
              },
              {
                "depth": 3,
                "value": 1.0,
                "norm_class_idx": 1,
                "splits": [
                  {
                    "var": 88,
                    "quality": 3.3824325561523438e+01,
                    "le": 3.4618854522705078e+01
                  }
                ]
              },
              {
                "depth": 4,
                "value": 1.0,
                "norm_class_idx": 1,
                "splits": [
                  {
                    "var": 1,
                    "quality": 3.3166667938232422e+01,
                    "le": 3.2781177520751953e+01
                  }
                ]
              },
              {
                "depth": 5,
                "value": 1.0,
                "norm_class_idx": 1,
                "splits": [
                  {
                    "var": 32,
                    "quality": 33.0,
                    "le": 9.0152526855468750e+01
                  }
                ]
              },
              {
                "depth": 6,
                "value": 1.0,
                "norm_class_idx": 1
              },
              {
                "depth": 6,
                "value": 1.0,
                "norm_class_idx": 1
              },
              {
                "depth": 5,
                "value": 6.0,
                "norm_class_idx": 6
              },
              {
                "depth": 4,
                "value": 5.0,
                "norm_class_idx": 5
              },
              {
                "depth": 1,
                "value": 3.0,
                "norm_class_idx": 3,
                "splits": [
                  {
                    "var": 120,
                    "quality": 7.9026313781738281e+01,
                    "le": 36.0
                  }
                ]
              },
              {
                "depth": 2,
                "value": 3.0,
                "norm_class_idx": 3,
                "splits": [
                  {
                    "var": 62,
                    "quality": 76.0,
                    "le": 6.3938484191894531e+00
                  }
                ]
              },
              {
                "depth": 3,
                "value": 0.0,
                "norm_class_idx": 0
              },
              {
                "depth": 3,
                "value": 3.0,
                "norm_class_idx": 3
              },
              {
                "depth": 2,
                "value": 0.0,
                "norm_class_idx": 0
              }
            ]
          },
          {
            "nodes": [
              {
                "depth": 0,
                "value": 6.0,
                "norm_class_idx": 6,
                "splits": [
                  {
                    "var": 51,
                    "quality": 2.2069158935546875e+02,
                    "le": 4.1950000000000000e+02
                  }
                ]
              },
              {
                "depth": 1,
                "value": 6.0,
                "norm_class_idx": 6,
                "splits": [
                  {
                    "var": 108,
                    "quality": 2.7572567749023438e+02,
                    "le": 2.9770574569702148e+00
                  }
                ]
              },
              {
                "depth": 2,
                "value": 7.0,
                "norm_class_idx": 7,
                "splits": [
                  {
                    "var": 59,
                    "quality": 9.7794075012207031e+01,
                    "le": 8.0
                  }
                ]
              },
              {
                "depth": 3,
                "value": 7.0,
                "norm_class_idx": 7,
                "splits": [
                  {
                    "var": 91,
                    "quality": 1.1564120483398438e+02,
                    "le": 58.0
                  }
                ]
              },
              {
                "depth": 4,
                "value": 7.0,
                "norm_class_idx": 7,
                "splits": [
                  {
                    "var": 93,
                    "quality": 1.0213084411621094e+02,
                    "le": 2.6926813125610352e+00
                  }
                ]
              },
              {
                "depth": 5,
                "value": 7.0,
                "norm_class_idx": 7,
                "splits": [
                  {
                    "var": 72,
                    "quality": 1.0566666412353516e+02,
                    "le": 9.4568588256835938e+01
                  }
                ]
              },
              {
                "depth": 6,
                "value": 7.0,
                "norm_class_idx": 7
              },
              {
                "depth": 6,
                "value": 2.0,
                "norm_class_idx": 2
              },
              {
                "depth": 5,
                "value": 6.0,
                "norm_class_idx": 6
              },
              {
                "depth": 4,
                "value": 4.0,
                "norm_class_idx": 4,
                "splits": [
                  {
                    "var": 88,
                    "quality": 2.4500000000000000e+01,
                    "le": 3.2344478607177734e+01
                  }
                ]
              },
              {
                "depth": 5,
                "value": 5.0,
                "norm_class_idx": 5,
                "splits": [
                  {
                    "var": 3,
                    "quality": 9.0,
                    "le": 9.9097537994384766e-01
                  }
                ]
              },
              {
                "depth": 6,
                "value": 0.0,
                "norm_class_idx": 0
              },
              {
                "depth": 6,
                "value": 5.0,
                "norm_class_idx": 5
              },
              {
                "depth": 5,
                "value": 4.0,
                "norm_class_idx": 4
              },
              {
                "depth": 3,
                "value": 2.0,
                "norm_class_idx": 2,
                "splits": [
                  {
                    "var": 42,
                    "quality": 2.9130434036254883e+01,
                    "le": 3.8832389831542969e+01
                  }
                ]
              },
              {
                "depth": 4,
                "value": 2.0,
                "norm_class_idx": 2,
                "splits": [
                  {
                    "var": 48,
                    "quality": 1.7888889312744141e+01,
                    "le": 1.5191200971603394e+00
                  }
                ]
              },
              {
                "depth": 5,
                "value": 2.0,
                "norm_class_idx": 2
              },
              {
                "depth": 5,
                "value": 2.0,
                "norm_class_idx": 2
              },
              {
                "depth": 4,
                "value": 1.0,
                "norm_class_idx": 1,
                "splits": [
                  {
                    "var": 58,
                    "quality": 18.0,
                    "le": 4.1308586120605469e+01
                  }
                ]
              },
              {
                "depth": 5,
                "value": 5.0,
                "norm_class_idx": 5
              },
              {
                "depth": 5,
                "value": 1.0,
                "norm_class_idx": 1
              },
              {
                "depth": 2,
                "value": 6.0,
                "norm_class_idx": 6,
                "splits": [
                  {
                    "var": 109,
                    "quality": 2.3607929992675781e+02,
                    "le": 437.0
                  }
                ]
              },
              {
                "depth": 3,
                "value": 6.0,
                "norm_class_idx": 6,
                "splits": [
                  {
                    "var": 72,
                    "quality": 2.2460000610351563e+02,
                    "le": 2.5552761840820313e+02
                  }
                ]
              },
              {
                "depth": 4,
                "value": 6.0,
                "norm_class_idx": 6
              },
              {
                "depth": 4,
                "value": 2.0,
                "norm_class_idx": 2
              },
              {
                "depth": 3,
                "value": 3.0,
                "norm_class_idx": 3
              },
              {
                "depth": 1,
                "value": 3.0,
                "norm_class_idx": 3,
                "splits": [
                  {
                    "var": 35,
                    "quality": 1.0675695800781250e+02,
                    "le": 338.0
                  }
                ]
              },
              {
                "depth": 2,
                "value": 0.0,
                "norm_class_idx": 0,
                "splits": [
                  {
                    "var": 119,
                    "quality": 4.1677940368652344e+01,
                    "le": 5.5500000000000000e+01
                  }
                ]
              },
              {
                "depth": 3,
                "value": 3.0,
                "norm_class_idx": 3,
                "splits": [
                  {
                    "var": 53,
                    "quality": 15.0,
                    "le": 1.9014741897583008e+01
                  }
                ]
              },
              {
                "depth": 4,
                "value": 0.0,
                "norm_class_idx": 0
              },
              {
                "depth": 4,
                "value": 3.0,
                "norm_class_idx": 3
              },
              {
                "depth": 3,
                "value": 0.0,
                "norm_class_idx": 0,
                "splits": [
                  {
                    "var": 59,
                    "quality": 4.0487396240234375e+01,
                    "le": 5.2500000000000000e+01
                  }
                ]
              },
              {
                "depth": 4,
                "value": 0.0,
                "norm_class_idx": 0,
                "splits": [
                  {
                    "var": 82,
                    "quality": 44.0,
                    "le": 4.4805503845214844e+01
                  }
                ]
              },
              {
                "depth": 5,
                "value": 0.0,
                "norm_class_idx": 0,
                "splits": [
                  {
                    "var": 77,
                    "quality": 4.0978260040283203e+01,
                    "le": 4.9433889389038086e+00
                  }
                ]
              },
              {
                "depth": 6,
                "value": 0.0,
                "norm_class_idx": 0,
                "splits": [
                  {
                    "var": 46,
                    "quality": 4.0311111450195313e+01,
                    "le": 380.0
                  }
                ]
              },
              {
                "depth": 7,
                "value": 5.0,
                "norm_class_idx": 5
              },
              {
                "depth": 7,
                "value": 0.0,
                "norm_class_idx": 0,
                "splits": [
                  {
                    "var": 69,
                    "quality": 4.1136363983154297e+01,
                    "le": 6.6500000000000000e+01
                  }
                ]
              },
              {
                "depth": 8,
                "value": 0.0,
                "norm_class_idx": 0,
                "splits": [
                  {
                    "var": 36,
                    "quality": 4.2046512603759766e+01,
                    "le": 5.5500000000000000e+01
                  }
                ]
              },
              {
                "depth": 9,
                "value": 6.0,
                "norm_class_idx": 6
              },
              {
                "depth": 9,
                "value": 0.0,
                "norm_class_idx": 0,
                "splits": [
                  {
                    "var": 33,
                    "quality": 43.0,
                    "le": 6.2842834472656250e+02
                  }
                ]
              },
              {
                "depth": 10,
                "value": 0.0,
                "norm_class_idx": 0
              },
              {
                "depth": 10,
                "value": 1.0,
                "norm_class_idx": 1
              },
              {
                "depth": 8,
                "value": 1.0,
                "norm_class_idx": 1
              },
              {
                "depth": 6,
                "value": 5.0,
                "norm_class_idx": 5
              },
              {
                "depth": 5,
                "value": 5.0,
                "norm_class_idx": 5
              },
              {
                "depth": 4,
                "value": 1.0,
                "norm_class_idx": 1,
                "splits": [
                  {
                    "var": 88,
                    "quality": 1.5181818008422852e+01,
                    "le": 7.5071365356445313e+01
                  }
                ]
              },
              {
                "depth": 5,
                "value": 1.0,
                "norm_class_idx": 1,
                "splits": [
                  {
                    "var": 49,
                    "quality": 11.0,
                    "le": 3.4475000000000000e+02
                  }
                ]
              },
              {
                "depth": 6,
                "value": 1.0,
                "norm_class_idx": 1
              },
              {
                "depth": 6,
                "value": 5.0,
                "norm_class_idx": 5
              },
              {
                "depth": 5,
                "value": 3.0,
                "norm_class_idx": 3
              },
              {
                "depth": 2,
                "value": 3.0,
                "norm_class_idx": 3,
                "splits": [
                  {
                    "var": 82,
                    "quality": 80.0,
                    "le": 7.2927373647689819e-01
                  }
                ]
              },
              {
                "depth": 3,
                "value": 3.0,
                "norm_class_idx": 3
              },
              {
                "depth": 3,
                "value": 0.0,
                "norm_class_idx": 0
              }
            ]
          },
          {
            "nodes": [
              {
                "depth": 0,
                "value": 6.0,
                "norm_class_idx": 6,
                "splits": [
                  {
                    "var": 97,
                    "quality": 2.8763088989257813e+02,
                    "le": 1.0936482429504395e+01
                  }
                ]
              },
              {
                "depth": 1,
                "value": 7.0,
                "norm_class_idx": 7,
                "splits": [
                  {
                    "var": 46,
                    "quality": 1.4293986511230469e+02,
                    "le": 1.0545000000000000e+03
                  }
                ]
              },
              {
                "depth": 2,
                "value": 7.0,
                "norm_class_idx": 7,
                "splits": [
                  {
                    "var": 62,
                    "quality": 1.0522341156005859e+02,
                    "le": 6.5389343261718750e+01
                  }
                ]
              },
              {
                "depth": 3,
                "value": 7.0,
                "norm_class_idx": 7,
                "splits": [
                  {
                    "var": 33,
                    "quality": 1.0510243988037109e+02,
                    "le": 5.0409667968750000e+01
                  }
                ]
              },
              {
                "depth": 4,
                "value": 7.0,
                "norm_class_idx": 7,
                "splits": [
                  {
                    "var": 91,
                    "quality": 1.1367924499511719e+02,
                    "le": 8.4500000000000000e+01
                  }
                ]
              },
              {
                "depth": 5,
                "value": 7.0,
                "norm_class_idx": 7,
                "splits": [
                  {
                    "var": 43,
                    "quality": 106.0,
                    "le": 5.9961944580078125e+01
                  }
                ]
              },
              {
                "depth": 6,
                "value": 7.0,
                "norm_class_idx": 7
              },
              {
                "depth": 6,
                "value": 0.0,
                "norm_class_idx": 0
              },
              {
                "depth": 5,
                "value": 4.0,
                "norm_class_idx": 4,
                "splits": [
                  {
                    "var": 33,
                    "quality": 2.2333333969116211e+01,
                    "le": 9.0328197479248047e+00
                  }
                ]
              },
              {
                "depth": 6,
                "value": 4.0,
                "norm_class_idx": 4
              },
              {
                "depth": 6,
                "value": 5.0,
                "norm_class_idx": 5
              },
              {
                "depth": 4,
                "value": 0.0,
                "norm_class_idx": 0,
                "splits": [
                  {
                    "var": 81,
                    "quality": 3.8708332061767578e+01,
                    "le": 69.0
                  }
                ]
              },
              {
                "depth": 5,
                "value": 0.0,
                "norm_class_idx": 0,
                "splits": [
                  {
                    "var": 119,
                    "quality": 4.2722221374511719e+01,
                    "le": 52.0
                  }
                ]
              },
              {
                "depth": 6,
                "value": 7.0,
                "norm_class_idx": 7,
                "splits": [
                  {
                    "var": 14,
                    "quality": 12.0,
                    "le": 1.2425000000000000e+02
                  }
                ]
              },
              {
                "depth": 7,
                "value": 3.0,
                "norm_class_idx": 3
              },
              {
                "depth": 7,
                "value": 7.0,
                "norm_class_idx": 7
              },
              {
                "depth": 6,
                "value": 0.0,
                "norm_class_idx": 0,
                "splits": [
                  {
                    "var": 58,
                    "quality": 36.0,
                    "le": 5.2352607727050781e+01
                  }
                ]
              },
              {
                "depth": 7,
                "value": 0.0,
                "norm_class_idx": 0
              },
              {
                "depth": 7,
                "value": 1.0,
                "norm_class_idx": 1
              },
              {
                "depth": 5,
                "value": 5.0,
                "norm_class_idx": 5,
                "splits": [
                  {
                    "var": 84,
                    "quality": 1.5500000000000000e+01,
                    "le": 76.0
                  }
                ]
              },
              {
                "depth": 6,
                "value": 5.0,
                "norm_class_idx": 5,
                "splits": [
                  {
                    "var": 13,
                    "quality": 16.0,
                    "le": 2.5523080444335938e+02
                  }
                ]
              },
              {
                "depth": 7,
                "value": 5.0,
                "norm_class_idx": 5
              },
              {
                "depth": 7,
                "value": 0.0,
                "norm_class_idx": 0
              },
              {
                "depth": 6,
                "value": 3.0,
                "norm_class_idx": 3
              },
              {
                "depth": 3,
                "value": 1.0,
                "norm_class_idx": 1,
                "splits": [
                  {
                    "var": 51,
                    "quality": 5.1960437774658203e+01,
                    "le": 1.6650000000000000e+02
                  }
                ]
              },
              {
                "depth": 4,
                "value": 2.0,
                "norm_class_idx": 2,
                "splits": [
                  {
                    "var": 81,
                    "quality": 3.4200000762939453e+01,
                    "le": 3.5000000000000000e+00
                  }
                ]
              },
              {
                "depth": 5,
                "value": 1.0,
                "norm_class_idx": 1
              },
              {
                "depth": 5,
                "value": 2.0,
                "norm_class_idx": 2
              },
              {
                "depth": 4,
                "value": 1.0,
                "norm_class_idx": 1,
                "splits": [
                  {
                    "var": 28,
                    "quality": 2.6714284896850586e+01,
                    "le": 1.4031336975097656e+02
                  }
                ]
              },
              {
                "depth": 5,
                "value": 1.0,
                "norm_class_idx": 1,
                "splits": [
                  {
                    "var": 9,
                    "quality": 2.6666666030883789e+01,
                    "le": 9.9110496044158936e-01
                  }
                ]
              },
              {
                "depth": 6,
                "value": 1.0,
                "norm_class_idx": 1
              },
              {
                "depth": 6,
                "value": 0.0,
                "norm_class_idx": 0
              },
              {
                "depth": 5,
                "value": 5.0,
                "norm_class_idx": 5
              },
              {
                "depth": 2,
                "value": 3.0,
                "norm_class_idx": 3,
                "splits": [
                  {
                    "var": 123,
                    "quality": 86.0,
                    "le": 2.1788383483886719e+02
                  }
                ]
              },
              {
                "depth": 3,
                "value": 3.0,
                "norm_class_idx": 3
              },
              {
                "depth": 3,
                "value": 0.0,
                "norm_class_idx": 0
              },
              {
                "depth": 1,
                "value": 6.0,
                "norm_class_idx": 6,
                "splits": [
                  {
                    "var": 108,
                    "quality": 2.3703479003906250e+02,
                    "le": 7.0349230957031250e+02
                  }
                ]
              },
              {
                "depth": 2,
                "value": 6.0,
                "norm_class_idx": 6,
                "splits": [
                  {
                    "var": 92,
                    "quality": 230.0,
                    "le": 1.1758972930908203e+02
                  }
                ]
              },
              {
                "depth": 3,
                "value": 6.0,
                "norm_class_idx": 6
              },
              {
                "depth": 3,
                "value": 3.0,
                "norm_class_idx": 3
              },
              {
                "depth": 2,
                "value": 3.0,
                "norm_class_idx": 3
              }
            ]
          },
          {
            "nodes": [
              {
                "depth": 0,
                "value": 6.0,
                "norm_class_idx": 6,
                "splits": [
                  {
                    "var": 97,
                    "quality": 3.0093264770507813e+02,
                    "le": 1.1161857604980469e+01
                  }
                ]
              },
              {
                "depth": 1,
                "value": 7.0,
                "norm_class_idx": 7,
                "splits": [
                  {
                    "var": 57,
                    "quality": 1.1269105529785156e+02,
                    "le": 1.1437234878540039e+01
                  }
                ]
              },
              {
                "depth": 2,
                "value": 7.0,
                "norm_class_idx": 7,
                "splits": [
                  {
                    "var": 47,
                    "quality": 1.0418260955810547e+02,
                    "le": 9.4588119506835938e+01
                  }
                ]
              },
              {
                "depth": 3,
                "value": 7.0,
                "norm_class_idx": 7,
                "splits": [
                  {
                    "var": 128,
                    "quality": 1.0141815948486328e+02,
                    "le": 2.1540153503417969e+02
                  }
                ]
              },
              {
                "depth": 4,
                "value": 7.0,
                "norm_class_idx": 7,
                "splits": [
                  {
                    "var": 35,
                    "quality": 9.0021980285644531e+01,
                    "le": 1.9850000000000000e+02
                  }
                ]
              },
              {
                "depth": 5,
                "value": 7.0,
                "norm_class_idx": 7,
                "splits": [
                  {
                    "var": 57,
                    "quality": 8.9666664123535156e+01,
                    "le": 8.6155357360839844e+00
                  }
                ]
              },
              {
                "depth": 6,
                "value": 7.0,
                "norm_class_idx": 7
              },
              {
                "depth": 6,
                "value": 7.0,
                "norm_class_idx": 7
              },
              {
                "depth": 5,
                "value": 0.0,
                "norm_class_idx": 0
              },
              {
                "depth": 4,
                "value": 4.0,
                "norm_class_idx": 4,
                "splits": [
                  {
                    "var": 51,
                    "quality": 16.0,
                    "le": 2.5050000000000000e+02
                  }
                ]
              },
              {
                "depth": 5,
                "value": 4.0,
                "norm_class_idx": 4
              },
              {
                "depth": 5,
                "value": 0.0,
                "norm_class_idx": 0
              },
              {
                "depth": 3,
                "value": 0.0,
                "norm_class_idx": 0,
                "splits": [
                  {
                    "var": 11,
                    "quality": 4.0222221374511719e+01,
                    "le": 1.2710439682006836e+01
                  }
                ]
              },
              {
                "depth": 4,
                "value": 0.0,
                "norm_class_idx": 0
              },
              {
                "depth": 4,
                "value": 5.0,
                "norm_class_idx": 5
              },
              {
                "depth": 2,
                "value": 3.0,
                "norm_class_idx": 3,
                "splits": [
                  {
                    "var": 57,
                    "quality": 6.6749000549316406e+01,
                    "le": 1.1216330718994141e+02
                  }
                ]
              },
              {
                "depth": 3,
                "value": 3.0,
                "norm_class_idx": 3,
                "splits": [
                  {
                    "var": 34,
                    "quality": 6.7080001831054688e+01,
                    "le": 6.1675000000000000e+02
                  }
                ]
              },
              {
                "depth": 4,
                "value": 5.0,
                "norm_class_idx": 5,
                "splits": [
                  {
                    "var": 35,
                    "quality": 1.7440475463867188e+01,
                    "le": 1.1850000000000000e+02
                  }
                ]
              },
              {
                "depth": 5,
                "value": 5.0,
                "norm_class_idx": 5,
                "splits": [
                  {
                    "var": 32,
                    "quality": 1.8046920776367188e+01,
                    "le": 8.8311119079589844e+01
                  }
                ]
              },
              {
                "depth": 6,
                "value": 5.0,
                "norm_class_idx": 5,
                "splits": [
                  {
                    "var": 91,
                    "quality": 2.3266666412353516e+01,
                    "le": 55.0
                  }
                ]
              },
              {
                "depth": 7,
                "value": 1.0,
                "norm_class_idx": 1,
                "splits": [
                  {
                    "var": 61,
                    "quality": 1.1800000190734863e+01,
                    "le": 179.0
                  }
                ]
              },
              {
                "depth": 8,
                "value": 0.0,
                "norm_class_idx": 0
              },
              {
                "depth": 8,
                "value": 1.0,
                "norm_class_idx": 1
              },
              {
