{
  "object_classifier_type": "OpenCVMLClassifier",
  "featureExtractor": {
    "feature_extractor_type": "DefaultFeatureExtractor",
    "measurements": [
      "Nucleus: Area µm^2",
      "Nucleus: Length µm",
      "Nucleus: Circularity",
      "Nucleus: Solidity",
      "Nucleus: Max diameter µm",
      "Nucleus: Min diameter µm",
      "Cell: Area µm^2",
      "Cell: Length µm",
      "Cell: Circularity",
      "Cell: Solidity",
      "Cell: Max diameter µm",
      "Cell: Min diameter µm",
      "Nucleus/Cell area ratio",
      "Nuclei: Nucleus: Mean",
      "Nuclei: Nucleus: Median",
      "Nuclei: Nucleus: Min",
      "Nuclei: Nucleus: Max",
      "Nuclei: Nucleus: Std.Dev.",
      "Nuclei: Cytoplasm: Mean",
      "Nuclei: Cytoplasm: Median",
      "Nuclei: Cytoplasm: Min",
      "Nuclei: Cytoplasm: Max",
      "Nuclei: Cytoplasm: Std.Dev.",
      "Nuclei: Membrane: Mean",
      "Nuclei: Membrane: Median",
      "Nuclei: Membrane: Min",
      "Nuclei: Membrane: Max",
      "Nuclei: Membrane: Std.Dev.",
      "Nuclei: Cell: Mean",
      "Nuclei: Cell: Median",
      "Nuclei: Cell: Min",
      "Nuclei: Cell: Max",
      "Nuclei: Cell: Std.Dev.",
      "CD68: Nucleus: Mean",
      "CD68: Nucleus: Median",
      "CD68: Nucleus: Min",
      "CD68: Nucleus: Max",
      "CD68: Nucleus: Std.Dev.",
      "CD68: Cytoplasm: Mean",
      "CD68: Cytoplasm: Median",
      "CD68: Cytoplasm: Min",
      "CD68: Cytoplasm: Max",
      "CD68: Cytoplasm: Std.Dev.",
      "CD68: Membrane: Mean",
      "CD68: Membrane: Median",
      "CD68: Membrane: Min",
      "CD68: Membrane: Max",
      "CD68: Membrane: Std.Dev.",
      "CD68: Cell: Mean",
      "CD68: Cell: Median",
      "CD68: Cell: Min",
      "CD68: Cell: Max",
      "CD68: Cell: Std.Dev.",
      "CD15: Nucleus: Mean",
      "CD15: Nucleus: Median",
      "CD15: Nucleus: Min",
      "CD15: Nucleus: Max",
      "CD15: Nucleus: Std.Dev.",
      "CD15: Cytoplasm: Mean",
      "CD15: Cytoplasm: Median",
      "CD15: Cytoplasm: Min",
      "CD15: Cytoplasm: Max",
      "CD15: Cytoplasm: Std.Dev.",
      "CD15: Membrane: Mean",
      "CD15: Membrane: Median",
      "CD15: Membrane: Min",
      "CD15: Membrane: Max",
      "CD15: Membrane: Std.Dev.",
      "CD15: Cell: Mean",
      "CD15: Cell: Median",
      "CD15: Cell: Min",
      "CD15: Cell: Max",
      "CD15: Cell: Std.Dev.",
      "NKX: Nucleus: Mean",
      "NKX: Nucleus: Median",
      "NKX: Nucleus: Min",
      "NKX: Nucleus: Max",
      "NKX: Nucleus: Std.Dev.",
      "NKX: Cytoplasm: Mean",
      "NKX: Cytoplasm: Median",
      "NKX: Cytoplasm: Min",
      "NKX: Cytoplasm: Max",
      "NKX: Cytoplasm: Std.Dev.",
      "NKX: Membrane: Mean",
      "NKX: Membrane: Median",
      "NKX: Membrane: Min",
      "NKX: Membrane: Max",
      "NKX: Membrane: Std.Dev.",
      "NKX: Cell: Mean",
      "NKX: Cell: Median",
      "NKX: Cell: Min",
      "NKX: Cell: Max",
      "NKX: Cell: Std.Dev.",
      "MPO: Nucleus: Mean",
      "MPO: Nucleus: Median",
      "MPO: Nucleus: Min",
      "MPO: Nucleus: Max",
      "MPO: Nucleus: Std.Dev.",
      "MPO: Cytoplasm: Mean",
      "MPO: Cytoplasm: Median",
      "MPO: Cytoplasm: Min",
      "MPO: Cytoplasm: Max",
      "MPO: Cytoplasm: Std.Dev.",
      "MPO: Membrane: Mean",
      "MPO: Membrane: Median",
      "MPO: Membrane: Min",
      "MPO: Membrane: Max",
      "MPO: Membrane: Std.Dev.",
      "MPO: Cell: Mean",
      "MPO: Cell: Median",
      "MPO: Cell: Min",
      "MPO: Cell: Max",
      "MPO: Cell: Std.Dev."
    ]
  },
  "classifier": {
    "class": "RTrees",
    "statmodel": {
      "opencv_ml_rtrees": {
        "format": 3,
        "is_classifier": 1,
        "var_all": 114,
        "var_count": 113,
        "ord_var_count": 113,
        "cat_var_count": 1,
        "training_params": {
          "use_surrogates": 0,
          "max_categories": 10,
          "regression_accuracy": 0.0,
          "max_depth": 25,
          "min_sample_count": 10,
          "cross_validation_folds": 0,
          "nactive_vars": 0
        },
        "global_var_idx": 1,
        "var_idx": [
          0,
          1,
          2,
          3,
          4,
          5,
          6,
          7,
          8,
          9,
          10,
          11,
          12,
          13,
          14,
          15,
          16,
          17,
          18,
          19,
          20,
          21,
          22,
          23,
          24,
          25,
          26,
          27,
          28,
          29,
          30,
          31,
          32,
          33,
          34,
          35,
          36,
          37,
          38,
          39,
          40,
          41,
          42,
          43,
          44,
          45,
          46,
          47,
          48,
          49,
          50,
          51,
          52,
          53,
          54,
          55,
          56,
          57,
          58,
          59,
          60,
          61,
          62,
          63,
          64,
          65,
          66,
          67,
          68,
          69,
          70,
          71,
          72,
          73,
          74,
          75,
          76,
          77,
          78,
          79,
          80,
          81,
          82,
          83,
          84,
          85,
          86,
          87,
          88,
          89,
          90,
          91,
          92,
          93,
          94,
          95,
          96,
          97,
          98,
          99,
          100,
          101,
          102,
          103,
          104,
          105,
          106,
          107,
          108,
          109,
          110,
          111,
          112
        ],
        "var_type": [
          0,
          0,
          0,
          0,
          0,
          0,
          0,
          0,
          0,
          0,
          0,
          0,
          0,
          0,
          0,
          0,
          0,
          0,
          0,
          0,
          0,
          0,
          0,
          0,
          0,
          0,
          0,
          0,
          0,
          0,
          0,
          0,
          0,
          0,
          0,
          0,
          0,
          0,
          0,
          0,
          0,
          0,
          0,
          0,
          0,
          0,
          0,
          0,
          0,
          0,
          0,
          0,
          0,
          0,
          0,
          0,
          0,
          0,
          0,
          0,
          0,
          0,
          0,
          0,
          0,
          0,
          0,
          0,
          0,
          0,
          0,
          0,
          0,
          0,
          0,
          0,
          0,
          0,
          0,
          0,
          0,
          0,
          0,
          0,
          0,
          0,
          0,
          0,
          0,
          0,
          0,
          0,
          0,
          0,
          0,
          0,
          0,
          0,
          0,
          0,
          0,
          0,
          0,
          0,
          0,
          0,
          0,
          0,
          0,
          0,
          0,
          0,
          0,
          1
        ],
        "cat_ofs": [
          0,
          0,
          0,
          0,
          0,
          0,
          0,
          0,
          0,
          0,
          0,
          0,
          0,
          0,
          0,
          0,
          0,
          0,
          0,
          0,
          0,
          0,
          0,
          0,
          0,
          0,
          0,
          0,
          0,
          0,
          0,
          0,
          0,
          0,
          0,
          0,
          0,
          0,
          0,
          0,
          0,
          0,
          0,
          0,
          0,
          0,
          0,
          0,
          0,
          0,
          0,
          0,
          0,
          0,
          0,
          0,
          0,
          0,
          0,
          0,
          0,
          0,
          0,
          0,
          0,
          0,
          0,
          0,
          0,
          0,
          0,
          0,
          0,
          0,
          0,
          0,
          0,
          0,
          0,
          0,
          0,
          0,
          0,
          0,
          0,
          0,
          0,
          0,
          0,
          0,
          0,
          0,
          0,
          0,
          0,
          0,
          0,
          0,
          0,
          0,
          0,
          0,
          0,
          0,
          0,
          0,
          0,
          0,
          0,
          0,
          0,
          0,
          0,
          0,
          0,
          0,
          0,
          0,
          0,
          0,
          0,
          0,
          0,
          0,
          0,
          0,
          0,
          0,
          0,
          0,
          0,
          0,
          0,
          0,
          0,
          0,
          0,
          0,
          0,
          0,
          0,
          0,
          0,
          0,
          0,
          0,
          0,
          0,
          0,
          0,
          0,
          0,
          0,
          0,
          0,
          0,
          0,
          0,
          0,
          0,
          0,
          0,
          0,
          0,
          0,
          0,
          0,
          0,
          0,
          0,
          0,
          0,
          0,
          0,
          0,
          0,
          0,
          0,
          0,
          0,
          0,
          0,
          0,
          0,
          0,
          0,
          0,
          0,
          0,
          0,
          0,
          0,
          0,
          0,
          0,
          0,
          0,
          0,
          0,
          0,
          0,
          0,
          0,
          0,
          0,
          0,
          0,
          0,
          0,
          0,
          0,
          0,
          0,
          0,
          0,
          0,
          0,
          0,
          0,
          0,
          0,
          0,
          0,
          0,
          0,
          0
        ],
        "class_labels": [
          0,
          1,
          2,
          3,
          4,
          5,
          6
        ],
        "missing_subst": [
          0.0,
          0.0,
          0.0,
          0.0,
          0.0,
          0.0,
          0.0,
          0.0,
          0.0,
          0.0,
          0.0,
          0.0,
          0.0,
          0.0,
          0.0,
          0.0,
          0.0,
          0.0,
          0.0,
          0.0,
          0.0,
          0.0,
          0.0,
          0.0,
          0.0,
          0.0,
          0.0,
          0.0,
          0.0,
          0.0,
          0.0,
          0.0,
          0.0,
          0.0,
          0.0,
          0.0,
          0.0,
          0.0,
          0.0,
          0.0,
          0.0,
          0.0,
          0.0,
          0.0,
          0.0,
          0.0,
          0.0,
          0.0,
          0.0,
          0.0,
          0.0,
          0.0,
          0.0,
          0.0,
          0.0,
          0.0,
          0.0,
          0.0,
          0.0,
          0.0,
          0.0,
          0.0,
          0.0,
          0.0,
          0.0,
          0.0,
          0.0,
          0.0,
          0.0,
          0.0,
          0.0,
          0.0,
          0.0,
          0.0,
          0.0,
          0.0,
          0.0,
          0.0,
          0.0,
          0.0,
          0.0,
          0.0,
          0.0,
          0.0,
          0.0,
          0.0,
          0.0,
          0.0,
          0.0,
          0.0,
          0.0,
          0.0,
          0.0,
          0.0,
          0.0,
          0.0,
          0.0,
          0.0,
          0.0,
          0.0,
          0.0,
          0.0,
          0.0,
          0.0,
          0.0,
          0.0,
          0.0,
          0.0,
          0.0,
          0.0,
          0.0,
          0.0,
          0.0,
          0.0
        ],
        "oob_error": 0.0,
        "ntrees": 50,
        "trees": [
          {
            "nodes": [
              {
                "depth": 0,
                "value": 5.0,
                "norm_class_idx": 5,
                "splits": [
                  {
                    "var": 46,
                    "quality": 2.4321589660644531e+02,
                    "le": 1.1309354782104492e+01
                  }
                ]
              },
              {
                "depth": 1,
                "value": 5.0,
                "norm_class_idx": 5,
                "splits": [
                  {
                    "var": 57,
                    "quality": 2.2106678771972656e+02,
                    "le": 1.0726713389158249e-01
                  }
                ]
              },
              {
                "depth": 2,
                "value": 5.0,
                "norm_class_idx": 5,
                "splits": [
                  {
                    "var": 49,
                    "quality": 2.0586927795410156e+02,
                    "le": 8.3056128025054932e-01
                  }
                ]
              },
              {
                "depth": 3,
                "value": 5.0,
                "norm_class_idx": 5,
                "splits": [
                  {
                    "var": 92,
                    "quality": 1.9721200561523438e+02,
                    "le": 1.0591130703687668e-02
                  }
                ]
              },
              {
                "depth": 4,
                "value": 6.0,
                "norm_class_idx": 6,
                "splits": [
                  {
                    "var": 102,
                    "quality": 1.2840113830566406e+02,
                    "le": 7.9488366842269897e-02
                  }
                ]
              },
              {
                "depth": 5,
                "value": 6.0,
                "norm_class_idx": 6,
                "splits": [
                  {
                    "var": 24,
                    "quality": 9.5052177429199219e+01,
                    "le": 4.8623690605163574e+00
                  }
                ]
              },
              {
                "depth": 6,
                "value": 6.0,
                "norm_class_idx": 6,
                "splits": [
                  {
                    "var": 29,
                    "quality": 9.6556098937988281e+01,
                    "le": 4.6925497055053711e+00
                  }
                ]
              },
              {
                "depth": 7,
                "value": 6.0,
                "norm_class_idx": 6,
                "splits": [
                  {
                    "var": 34,
                    "quality": 9.6333335876464844e+01,
                    "le": 1.3836480379104614e+00
                  }
                ]
              },
              {
                "depth": 8,
                "value": 6.0,
                "norm_class_idx": 6,
                "splits": [
                  {
                    "var": 87,
                    "quality": 9.6582611083984375e+01,
                    "le": 1.0690240189433098e-02
                  }
                ]
              },
              {
                "depth": 9,
                "value": 6.0,
                "norm_class_idx": 6,
                "splits": [
                  {
                    "var": 11,
                    "quality": 9.7728973388671875e+01,
                    "le": 1.5494321823120117e+01
                  }
                ]
              },
              {
                "depth": 10,
                "value": 6.0,
                "norm_class_idx": 6,
                "splits": [
                  {
                    "var": 26,
                    "quality": 9.5400749206542969e+01,
                    "le": 2.0721725463867188e+01
                  }
                ]
              },
              {
                "depth": 11,
                "value": 6.0,
                "norm_class_idx": 6,
                "splits": [
                  {
                    "var": 26,
                    "quality": 8.5247222900390625e+01,
                    "le": 2.1446311473846436e+00
                  }
                ]
              },
              {
                "depth": 12,
                "value": 6.0,
                "norm_class_idx": 6
              },
              {
                "depth": 12,
                "value": 6.0,
                "norm_class_idx": 6,
                "splits": [
                  {
                    "var": 5,
                    "quality": 7.8666664123535156e+01,
                    "le": 8.3263998031616211e+00
                  }
                ]
              },
              {
                "depth": 13,
                "value": 6.0,
                "norm_class_idx": 6
              },
              {
                "depth": 13,
                "value": 6.0,
                "norm_class_idx": 6
              },
              {
                "depth": 11,
                "value": 6.0,
                "norm_class_idx": 6,
                "splits": [
                  {
                    "var": 28,
                    "quality": 14.0,
                    "le": 8.4165468215942383e+00
                  }
                ]
              },
              {
                "depth": 12,
                "value": 5.0,
                "norm_class_idx": 5
              },
              {
                "depth": 12,
                "value": 6.0,
                "norm_class_idx": 6
              },
              {
                "depth": 10,
                "value": 4.0,
                "norm_class_idx": 4
              },
              {
                "depth": 9,
                "value": 2.0,
                "norm_class_idx": 2
              },
              {
                "depth": 8,
                "value": 2.0,
                "norm_class_idx": 2
              },
              {
                "depth": 7,
                "value": 5.0,
                "norm_class_idx": 5,
                "splits": [
                  {
                    "var": 112,
                    "quality": 1.3285714149475098e+01,
                    "le": 9.3009378761053085e-03
                  }
                ]
              },
              {
                "depth": 8,
                "value": 5.0,
                "norm_class_idx": 5
              },
              {
                "depth": 8,
                "value": 6.0,
                "norm_class_idx": 6
              },
              {
                "depth": 6,
                "value": 4.0,
                "norm_class_idx": 4,
                "splits": [
                  {
                    "var": 37,
                    "quality": 11.0,
                    "le": 1.3141278922557831e-01
                  }
                ]
              },
              {
                "depth": 7,
                "value": 4.0,
                "norm_class_idx": 4
              },
              {
                "depth": 7,
                "value": 1.0,
                "norm_class_idx": 1
              },
              {
                "depth": 5,
                "value": 4.0,
                "norm_class_idx": 4,
                "splits": [
                  {
                    "var": 96,
                    "quality": 4.6666667938232422e+01,
                    "le": 6.0295009613037109e-01
                  }
                ]
              },
              {
                "depth": 6,
                "value": 4.0,
                "norm_class_idx": 4
              },
              {
                "depth": 6,
                "value": 4.0,
                "norm_class_idx": 4
              },
              {
                "depth": 4,
                "value": 5.0,
                "norm_class_idx": 5,
                "splits": [
                  {
                    "var": 101,
                    "quality": 1.2945054626464844e+02,
                    "le": 8.4386670589447021e-01
                  }
                ]
              },
              {
                "depth": 5,
                "value": 5.0,
                "norm_class_idx": 5,
                "splits": [
                  {
                    "var": 94,
                    "quality": 1.4574349975585938e+02,
                    "le": 7.3398739099502563e-02
                  }
                ]
              },
              {
                "depth": 6,
                "value": 5.0,
                "norm_class_idx": 5,
                "splits": [
                  {
                    "var": 42,
                    "quality": 1.3451281738281250e+02,
                    "le": 2.1798647940158844e-02
                  }
                ]
              },
              {
                "depth": 7,
                "value": 4.0,
                "norm_class_idx": 4
              },
              {
                "depth": 7,
                "value": 5.0,
                "norm_class_idx": 5,
                "splits": [
                  {
                    "var": 33,
                    "quality": 1.3915496826171875e+02,
                    "le": 1.0722880363464355e+00
                  }
                ]
              },
              {
                "depth": 8,
                "value": 5.0,
                "norm_class_idx": 5,
                "splits": [
                  {
                    "var": 108,
                    "quality": 1.3807929992675781e+02,
                    "le": 4.5103773474693298e-02
                  }
                ]
              },
              {
                "depth": 9,
                "value": 5.0,
                "norm_class_idx": 5,
                "splits": [
                  {
                    "var": 91,
                    "quality": 1.1740000152587891e+02,
                    "le": 6.2787346541881561e-02
                  }
                ]
              },
              {
                "depth": 10,
                "value": 5.0,
                "norm_class_idx": 5
              },
              {
                "depth": 10,
                "value": 5.0,
                "norm_class_idx": 5
              },
              {
                "depth": 9,
                "value": 5.0,
                "norm_class_idx": 5,
                "splits": [
                  {
                    "var": 32,
                    "quality": 32.0,
                    "le": 6.4924950599670410e+00
                  }
                ]
              },
              {
                "depth": 10,
                "value": 4.0,
                "norm_class_idx": 4
              },
              {
                "depth": 10,
                "value": 5.0,
                "norm_class_idx": 5
              },
              {
                "depth": 8,
                "value": 0.0,
                "norm_class_idx": 0
              },
              {
                "depth": 6,
                "value": 4.0,
                "norm_class_idx": 4,
                "splits": [
                  {
                    "var": 32,
                    "quality": 23.0,
                    "le": 1.5754180908203125e+01
                  }
                ]
              },
              {
                "depth": 7,
                "value": 4.0,
                "norm_class_idx": 4
              },
              {
                "depth": 7,
                "value": 5.0,
                "norm_class_idx": 5
              },
              {
                "depth": 5,
                "value": 4.0,
                "norm_class_idx": 4,
                "splits": [
                  {
                    "var": 46,
                    "quality": 12.0,
                    "le": 1.1824676990509033e+00
                  }
                ]
              },
              {
                "depth": 6,
                "value": 4.0,
                "norm_class_idx": 4
              },
              {
                "depth": 6,
                "value": 1.0,
                "norm_class_idx": 1
              },
              {
                "depth": 3,
                "value": 2.0,
                "norm_class_idx": 2,
                "splits": [
                  {
                    "var": 70,
                    "quality": 9.5247421264648438e+01,
                    "le": 2.5459690019488335e-02
                  }
                ]
              },
              {
                "depth": 4,
                "value": 2.0,
                "norm_class_idx": 2,
                "splits": [
                  {
                    "var": 35,
                    "quality": 9.1022224426269531e+01,
                    "le": 9.9449858069419861e-02
                  }
                ]
              },
              {
                "depth": 5,
                "value": 2.0,
                "norm_class_idx": 2
              },
              {
                "depth": 5,
                "value": 2.0,
                "norm_class_idx": 2,
                "splits": [
                  {
                    "var": 6,
                    "quality": 8.8142860412597656e+01,
                    "le": 1.5400286865234375e+02
                  }
                ]
              },
              {
                "depth": 6,
                "value": 2.0,
                "norm_class_idx": 2
              },
              {
                "depth": 6,
                "value": 2.0,
                "norm_class_idx": 2,
                "splits": [
                  {
                    "var": 21,
                    "quality": 14.0,
                    "le": 2.2269195556640625e+01
                  }
                ]
              },
              {
                "depth": 7,
                "value": 2.0,
                "norm_class_idx": 2
              },
              {
                "depth": 7,
                "value": 6.0,
                "norm_class_idx": 6
              },
              {
                "depth": 4,
                "value": 5.0,
                "norm_class_idx": 5
              },
              {
                "depth": 2,
                "value": 1.0,
                "norm_class_idx": 1,
                "splits": [
                  {
                    "var": 46,
                    "quality": 1.0937246704101563e+02,
                    "le": 2.3216490745544434e+00
                  }
                ]
              },
              {
                "depth": 3,
                "value": 1.0,
                "norm_class_idx": 1,
                "splits": [
                  {
                    "var": 104,
                    "quality": 1.1105405426025391e+02,
                    "le": 1.2772541493177414e-02
                  }
                ]
              },
              {
                "depth": 4,
                "value": 0.0,
                "norm_class_idx": 0
              },
              {
                "depth": 4,
                "value": 1.0,
                "norm_class_idx": 1,
                "splits": [
                  {
                    "var": 3,
                    "quality": 1.0716347503662109e+02,
                    "le": 9.4643306732177734e-01
                  }
                ]
              },
              {
                "depth": 5,
                "value": 1.0,
                "norm_class_idx": 1,
                "splits": [
                  {
                    "var": 11,
                    "quality": 14.0,
                    "le": 6.9736852645874023e+00
                  }
                ]
              },
              {
                "depth": 6,
                "value": 0.0,
                "norm_class_idx": 0
              },
              {
                "depth": 6,
                "value": 1.0,
                "norm_class_idx": 1
              },
              {
                "depth": 5,
                "value": 1.0,
                "norm_class_idx": 1,
                "splits": [
                  {
                    "var": 87,
                    "quality": 9.5285713195800781e+01,
                    "le": 7.7037364244461060e-03
                  }
                ]
              },
              {
                "depth": 6,
                "value": 1.0,
                "norm_class_idx": 1
              },
              {
                "depth": 6,
                "value": 1.0,
                "norm_class_idx": 1
              },
              {
                "depth": 3,
                "value": 2.0,
                "norm_class_idx": 2,
                "splits": [
                  {
                    "var": 53,
                    "quality": 8.8888893127441406e+00,
                    "le": 4.5342230796813965e-01
                  }
                ]
              },
              {
                "depth": 4,
                "value": 2.0,
                "norm_class_idx": 2
              },
              {
                "depth": 4,
                "value": 3.0,
                "norm_class_idx": 3
              },
              {
                "depth": 1,
                "value": 3.0,
                "norm_class_idx": 3,
                "splits": [
                  {
                    "var": 53,
                    "quality": 1.3688528442382813e+02,
                    "le": 1.0433068275451660e+00
                  }
                ]
              },
              {
                "depth": 2,
                "value": 0.0,
                "norm_class_idx": 0,
                "splits": [
                  {
                    "var": 47,
                    "quality": 1.9285715103149414e+01,
                    "le": 8.0323753356933594e+00
                  }
                ]
              },
              {
                "depth": 3,
                "value": 3.0,
                "norm_class_idx": 3,
                "splits": [
                  {
                    "var": 73,
                    "quality": 9.8000001907348633e+00,
                    "le": 5.0574004650115967e-02
                  }
                ]
              },
              {
                "depth": 4,
                "value": 3.0,
                "norm_class_idx": 3
              },
              {
                "depth": 4,
                "value": 5.0,
                "norm_class_idx": 5
              },
              {
                "depth": 3,
                "value": 0.0,
                "norm_class_idx": 0
              },
              {
                "depth": 2,
                "value": 3.0,
                "norm_class_idx": 3,
                "splits": [
                  {
                    "var": 42,
                    "quality": 1.2806153869628906e+02,
                    "le": 1.5444068908691406e+00
                  }
                ]
              },
              {
                "depth": 3,
                "value": 0.0,
                "norm_class_idx": 0
              },
              {
                "depth": 3,
                "value": 3.0,
                "norm_class_idx": 3,
                "splits": [
                  {
                    "var": 11,
                    "quality": 128.0,
                    "le": 1.7256835937500000e+01
                  }
                ]
              },
              {
                "depth": 4,
                "value": 3.0,
                "norm_class_idx": 3
              },
              {
                "depth": 4,
                "value": 0.0,
                "norm_class_idx": 0
              }
            ]
          },
          {
            "nodes": [
              {
                "depth": 0,
                "value": 5.0,
                "norm_class_idx": 5,
                "splits": [
                  {
                    "var": 46,
                    "quality": 2.4901864624023438e+02,
                    "le": 1.2914615631103516e+01
                  }
                ]
              },
              {
                "depth": 1,
                "value": 5.0,
                "norm_class_idx": 5,
                "splits": [
                  {
                    "var": 48,
                    "quality": 2.1263015747070313e+02,
                    "le": 1.0867493152618408e+00
                  }
                ]
              },
              {
                "depth": 2,
                "value": 5.0,
                "norm_class_idx": 5,
                "splits": [
                  {
                    "var": 53,
                    "quality": 2.1894746398925781e+02,
                    "le": 1.0763441026210785e-01
                  }
                ]
              },
              {
                "depth": 3,
                "value": 5.0,
                "norm_class_idx": 5,
                "splits": [
                  {
                    "var": 78,
                    "quality": 1.7804696655273438e+02,
                    "le": 2.6748050004243851e-02
                  }
                ]
              },
              {
                "depth": 4,
                "value": 6.0,
                "norm_class_idx": 6,
                "splits": [
                  {
                    "var": 97,
                    "quality": 1.3912525939941406e+02,
                    "le": 2.5078788399696350e-02
                  }
                ]
              },
              {
                "depth": 5,
                "value": 6.0,
                "norm_class_idx": 6,
                "splits": [
                  {
                    "var": 92,
                    "quality": 1.0033525848388672e+02,
                    "le": 8.2230456173419952e-03
                  }
                ]
              },
              {
                "depth": 6,
                "value": 6.0,
                "norm_class_idx": 6,
                "splits": [
                  {
                    "var": 74,
                    "quality": 7.6222221374511719e+01,
                    "le": 8.5186092182993889e-03
                  }
                ]
              },
              {
                "depth": 7,
                "value": 0.0,
                "norm_class_idx": 0
              },
              {
                "depth": 7,
                "value": 6.0,
                "norm_class_idx": 6,
                "splits": [
                  {
                    "var": 10,
                    "quality": 7.6101264953613281e+01,
                    "le": 1.1870223999023438e+01
                  }
                ]
              },
              {
                "depth": 8,
                "value": 5.0,
                "norm_class_idx": 5
              },
              {
                "depth": 8,
                "value": 6.0,
                "norm_class_idx": 6,
                "splits": [
                  {
                    "var": 58,
                    "quality": 7.6333335876464844e+01,
                    "le": 1.4830307103693485e-02
                  }
                ]
              },
              {
                "depth": 9,
                "value": 6.0,
                "norm_class_idx": 6
              },
              {
                "depth": 9,
                "value": 6.0,
                "norm_class_idx": 6
              },
              {
                "depth": 6,
                "value": 5.0,
                "norm_class_idx": 5,
                "splits": [
                  {
                    "var": 93,
                    "quality": 3.2181819915771484e+01,
                    "le": 4.0153443813323975e-02
                  }
                ]
              },
              {
                "depth": 7,
                "value": 5.0,
                "norm_class_idx": 5,
                "splits": [
                  {
                    "var": 9,
                    "quality": 2.7076604843139648e+01,
                    "le": 9.5521986484527588e-01
                  }
                ]
              },
              {
                "depth": 8,
                "value": 5.0,
                "norm_class_idx": 5,
                "splits": [
                  {
                    "var": 82,
                    "quality": 1.9100000381469727e+01,
                    "le": 7.0766843855381012e-03
                  }
                ]
              },
              {
                "depth": 9,
                "value": 6.0,
                "norm_class_idx": 6
              },
              {
                "depth": 9,
                "value": 5.0,
                "norm_class_idx": 5,
                "splits": [
                  {
                    "var": 11,
                    "quality": 20.0,
                    "le": 9.0325679779052734e+00
                  }
                ]
              },
              {
                "depth": 10,
                "value": 6.0,
                "norm_class_idx": 6
              },
              {
                "depth": 10,
                "value": 5.0,
                "norm_class_idx": 5
              },
              {
                "depth": 8,
                "value": 6.0,
                "norm_class_idx": 6,
                "splits": [
                  {
                    "var": 2,
                    "quality": 1.7661539077758789e+01,
                    "le": 8.7212979793548584e-01
                  }
                ]
              },
              {
                "depth": 9,
                "value": 6.0,
                "norm_class_idx": 6,
                "splits": [
                  {
                    "var": 22,
                    "quality": 12.0,
                    "le": 2.5498609542846680e+00
                  }
                ]
              },
              {
                "depth": 10,
                "value": 6.0,
                "norm_class_idx": 6
              },
              {
                "depth": 10,
                "value": 0.0,
                "norm_class_idx": 0
              },
              {
                "depth": 9,
                "value": 5.0,
                "norm_class_idx": 5
              },
              {
                "depth": 7,
                "value": 6.0,
                "norm_class_idx": 6,
                "splits": [
                  {
                    "var": 87,
                    "quality": 11.0,
                    "le": 3.0717091634869576e-02
                  }
                ]
              },
              {
                "depth": 8,
                "value": 6.0,
                "norm_class_idx": 6
              },
              {
                "depth": 8,
                "value": 5.0,
                "norm_class_idx": 5
              },
              {
                "depth": 5,
                "value": 4.0,
                "norm_class_idx": 4,
                "splits": [
                  {
                    "var": 33,
                    "quality": 6.7554542541503906e+01,
                    "le": 2.5199058651924133e-01
                  }
                ]
              },
              {
                "depth": 6,
                "value": 4.0,
                "norm_class_idx": 4,
                "splits": [
                  {
                    "var": 58,
                    "quality": 6.4850440979003906e+01,
                    "le": 3.2184123992919922e-02
                  }
                ]
              },
              {
                "depth": 7,
                "value": 4.0,
                "norm_class_idx": 4,
                "splits": [
                  {
                    "var": 84,
                    "quality": 62.0,
                    "le": 2.1495141088962555e-02
                  }
                ]
              },
              {
                "depth": 8,
                "value": 4.0,
                "norm_class_idx": 4
              },
              {
                "depth": 8,
                "value": 5.0,
                "norm_class_idx": 5
              },
              {
                "depth": 7,
                "value": 4.0,
                "norm_class_idx": 4,
                "splits": [
                  {
                    "var": 105,
                    "quality": 9.3999996185302734e+00,
                    "le": 2.4208355695009232e-02
                  }
                ]
              },
              {
                "depth": 8,
                "value": 1.0,
                "norm_class_idx": 1
              },
              {
                "depth": 8,
                "value": 4.0,
                "norm_class_idx": 4
              },
              {
                "depth": 6,
                "value": 1.0,
                "norm_class_idx": 1,
                "splits": [
                  {
                    "var": 66,
                    "quality": 11.0,
                    "le": 2.2969037294387817e-02
                  }
                ]
              },
              {
                "depth": 7,
                "value": 2.0,
                "norm_class_idx": 2
              },
              {
                "depth": 7,
                "value": 1.0,
                "norm_class_idx": 1,
                "splits": [
                  {
                    "var": 3,
                    "quality": 1.1250000000000000e+01,
                    "le": 9.8085618019104004e-01
                  }
                ]
              },
              {
                "depth": 8,
                "value": 4.0,
                "norm_class_idx": 4
              },
              {
                "depth": 8,
                "value": 1.0,
                "norm_class_idx": 1,
                "splits": [
                  {
                    "var": 57,
                    "quality": 9.6000003814697266e+00,
                    "le": 7.8357420861721039e-03
                  }
                ]
              },
              {
                "depth": 9,
                "value": 1.0,
                "norm_class_idx": 1
              },
              {
                "depth": 9,
                "value": 5.0,
                "norm_class_idx": 5
              },
              {
                "depth": 4,
                "value": 5.0,
                "norm_class_idx": 5,
                "splits": [
                  {
                    "var": 88,
                    "quality": 1.0923188781738281e+02,
                    "le": 3.2874178141355515e-02
                  }
                ]
              },
              {
                "depth": 5,
                "value": 4.0,
                "norm_class_idx": 4
              },
              {
                "depth": 5,
                "value": 5.0,
                "norm_class_idx": 5,
                "splits": [
                  {
                    "var": 110,
                    "quality": 1.0796666717529297e+02,
                    "le": 1.5372962225228548e-03
                  }
                ]
              },
              {
                "depth": 6,
                "value": 5.0,
                "norm_class_idx": 5,
                "splits": [
                  {
                    "var": 53,
                    "quality": 8.1214286804199219e+01,
                    "le": 2.9435556381940842e-02
                  }
                ]
              },
              {
                "depth": 7,
                "value": 5.0,
                "norm_class_idx": 5,
                "splits": [
                  {
                    "var": 84,
                    "quality": 7.9058822631835938e+01,
                    "le": 4.7339379787445068e-02
                  }
                ]
              },
              {
                "depth": 8,
                "value": 5.0,
                "norm_class_idx": 5
              },
              {
                "depth": 8,
                "value": 5.0,
                "norm_class_idx": 5,
                "splits": [
                  {
                    "var": 83,
                    "quality": 1.5133333206176758e+01,
                    "le": 6.0748133808374405e-02
                  }
                ]
              },
              {
                "depth": 9,
                "value": 4.0,
                "norm_class_idx": 4
              },
              {
                "depth": 9,
                "value": 5.0,
                "norm_class_idx": 5,
                "splits": [
                  {
                    "var": 46,
                    "quality": 15.0,
                    "le": 1.6591532528400421e-01
                  }
                ]
              },
              {
                "depth": 10,
                "value": 4.0,
                "norm_class_idx": 4
              },
              {
                "depth": 10,
                "value": 5.0,
                "norm_class_idx": 5
              },
              {
                "depth": 7,
                "value": 4.0,
                "norm_class_idx": 4
              },
              {
                "depth": 6,
                "value": 5.0,
                "norm_class_idx": 5,
                "splits": [
                  {
                    "var": 31,
                    "quality": 3.7052631378173828e+01,
                    "le": 4.5047931671142578e+01
                  }
                ]
              },
              {
                "depth": 7,
                "value": 4.0,
                "norm_class_idx": 4,
                "splits": [
                  {
                    "var": 108,
                    "quality": 1.5666666984558105e+01,
                    "le": 4.2882811278104782e-02
                  }
                ]
              },
              {
                "depth": 8,
                "value": 5.0,
                "norm_class_idx": 5
              },
              {
                "depth": 8,
                "value": 4.0,
                "norm_class_idx": 4,
                "splits": [
                  {
                    "var": 87,
                    "quality": 12.0,
                    "le": 1.2115213088691235e-02
                  }
                ]
              },
              {
                "depth": 9,
                "value": 6.0,
                "norm_class_idx": 6
              },
              {
                "depth": 9,
                "value": 4.0,
                "norm_class_idx": 4
              },
              {
                "depth": 7,
                "value": 5.0,
                "norm_class_idx": 5
              },
              {
                "depth": 3,
                "value": 1.0,
                "norm_class_idx": 1,
                "splits": [
                  {
                    "var": 56,
                    "quality": 1.0232727050781250e+02,
                    "le": 3.5325354337692261e-01
                  }
                ]
              },
              {
                "depth": 4,
                "value": 4.0,
                "norm_class_idx": 4
              },
              {
                "depth": 4,
                "value": 1.0,
                "norm_class_idx": 1,
                "splits": [
                  {
                    "var": 107,
                    "quality": 1.0411111450195313e+02,
                    "le": 8.1676393747329712e-03
                  }
                ]
              },
              {
                "depth": 5,
                "value": 0.0,
                "norm_class_idx": 0
              },
              {
                "depth": 5,
                "value": 1.0,
                "norm_class_idx": 1,
                "splits": [
                  {
                    "var": 29,
                    "quality": 1.0272380828857422e+02,
                    "le": 3.2641593933105469e+01
                  }
                ]
              },
              {
                "depth": 6,
                "value": 1.0,
                "norm_class_idx": 1,
                "splits": [
                  {
                    "var": 53,
                    "quality": 1.0141999816894531e+02,
                    "le": 1.7222797870635986e+00
                  }
                ]
              },
              {
                "depth": 7,
                "value": 1.0,
                "norm_class_idx": 1,
                "splits": [
                  {
                    "var": 68,
                    "quality": 9.8400001525878906e+01,
                    "le": 9.9995508790016174e-02
                  }
                ]
              },
              {
                "depth": 8,
                "value": 1.0,
                "norm_class_idx": 1
              },
              {
                "depth": 8,
                "value": 1.0,
                "norm_class_idx": 1
              },
              {
                "depth": 7,
                "value": 1.0,
                "norm_class_idx": 1
              },
              {
                "depth": 6,
                "value": 1.0,
                "norm_class_idx": 1
              },
              {
                "depth": 2,
                "value": 2.0,
                "norm_class_idx": 2,
                "splits": [
                  {
                    "var": 68,
                    "quality": 1.0922168731689453e+02,
                    "le": 1.7498281598091125e-01
                  }
                ]
              },
              {
                "depth": 3,
                "value": 2.0,
                "norm_class_idx": 2,
                "splits": [
                  {
                    "var": 49,
                    "quality": 1.0430088806152344e+02,
                    "le": 1.5627786517143250e-01
                  }
                ]
              },
              {
                "depth": 4,
                "value": 0.0,
                "norm_class_idx": 0
              },
              {
                "depth": 4,
                "value": 2.0,
                "norm_class_idx": 2,
                "splits": [
                  {
                    "var": 86,
                    "quality": 1.0521428680419922e+02,
                    "le": 3.2097215298563242e-03
                  }
                ]
              },
              {
                "depth": 5,
                "value": 4.0,
                "norm_class_idx": 4
              },
              {
                "depth": 5,
                "value": 2.0,
                "norm_class_idx": 2,
                "splits": [
                  {
                    "var": 50,
                    "quality": 1.0807273101806641e+02,
                    "le": 1.3504025936126709e+00
                  }
                ]
              },
              {
                "depth": 6,
                "value": 2.0,
                "norm_class_idx": 2,
                "splits": [
                  {
                    "var": 45,
                    "quality": 1.0638095092773438e+02,
                    "le": 3.1292727589607239e-01
                  }
                ]
              },
              {
                "depth": 7,
                "value": 2.0,
                "norm_class_idx": 2
              },
              {
                "depth": 7,
                "value": 2.0,
                "norm_class_idx": 2,
                "splits": [
                  {
                    "var": 6,
                    "quality": 21.0,
                    "le": 1.5029161071777344e+02
                  }
                ]
              },
              {
                "depth": 8,
                "value": 2.0,
                "norm_class_idx": 2
              },
              {
                "depth": 8,
                "value": 6.0,
                "norm_class_idx": 6
              },
              {
                "depth": 6,
                "value": 5.0,
                "norm_class_idx": 5
              },
              {
                "depth": 3,
                "value": 3.0,
                "norm_class_idx": 3,
                "splits": [
                  {
                    "var": 24,
                    "quality": 1.3636363983154297e+01,
                    "le": 1.3712968826293945e+00
                  }
                ]
              },
              {
                "depth": 4,
                "value": 3.0,
                "norm_class_idx": 3,
                "splits": [
                  {
                    "var": 52,
                    "quality": 11.0,
                    "le": 9.0476274490356445e-01
                  }
                ]
              },
              {
                "depth": 5,
                "value": 1.0,
                "norm_class_idx": 1
              },
              {
                "depth": 5,
                "value": 3.0,
                "norm_class_idx": 3
              },
              {
                "depth": 4,
                "value": 0.0,
                "norm_class_idx": 0,
                "splits": [
                  {
                    "var": 92,
                    "quality": 8.6000003814697266e+00,
                    "le": 1.2504241429269314e-02
                  }
                ]
              },
              {
                "depth": 5,
                "value": 0.0,
                "norm_class_idx": 0
              },
              {
                "depth": 5,
                "value": 5.0,
                "norm_class_idx": 5
              },
              {
                "depth": 1,
                "value": 3.0,
                "norm_class_idx": 3,
                "splits": [
                  {
                    "var": 88,
                    "quality": 1.4667311096191406e+02,
                    "le": 1.0627212002873421e-02
                  }
                ]
              },
              {
                "depth": 2,
                "value": 3.0,
                "norm_class_idx": 3,
                "splits": [
                  {
                    "var": 67,
                    "quality": 1.3705714416503906e+02,
                    "le": 1.3468241691589355e-01
                  }
                ]
              },
              {
                "depth": 3,
                "value": 0.0,
                "norm_class_idx": 0
              },
              {
                "depth": 3,
                "value": 3.0,
                "norm_class_idx": 3,
                "splits": [
                  {
                    "var": 77,
                    "quality": 137.0,
                    "le": 6.7723491229116917e-03
                  }
                ]
              },
              {
                "depth": 4,
                "value": 3.0,
                "norm_class_idx": 3
              },
              {
                "depth": 4,
                "value": 3.0,
                "norm_class_idx": 3
              },
              {
                "depth": 2,
                "value": 0.0,
                "norm_class_idx": 0,
                "splits": [
                  {
                    "var": 40,
                    "quality": 1.9142856597900391e+01,
                    "le": 1.2026166915893555e-01
                  }
                ]
              },
              {
                "depth": 3,
                "value": 0.0,
                "norm_class_idx": 0
              },
              {
                "depth": 3,
                "value": 3.0,
                "norm_class_idx": 3
              }
            ]
          },
          {
            "nodes": [
              {
                "depth": 0,
                "value": 5.0,
                "norm_class_idx": 5,
                "splits": [
                  {
                    "var": 36,
                    "quality": 2.4229386901855469e+02,
                    "le": 1.2770374298095703e+01
                  }
                ]
              },
              {
                "depth": 1,
                "value": 5.0,
                "norm_class_idx": 5,
                "splits": [
                  {
                    "var": 52,
                    "quality": 2.2593882751464844e+02,
                    "le": 6.2156552076339722e-01
                  }
                ]
              },
              {
                "depth": 2,
                "value": 5.0,
                "norm_class_idx": 5,
                "splits": [
                  {
                    "var": 54,
                    "quality": 2.1849130249023438e+02,
                    "le": 6.6724434494972229e-02
                  }
                ]
              },
              {
                "depth": 3,
                "value": 5.0,
                "norm_class_idx": 5,
                "splits": [
                  {
                    "var": 92,
                    "quality": 1.8870390319824219e+02,
                    "le": 1.4998333528637886e-02
                  }
                ]
              },
              {
                "depth": 4,
                "value": 4.0,
                "norm_class_idx": 4,
                "splits": [
                  {
                    "var": 99,
                    "quality": 1.0176600646972656e+02,
                    "le": 3.0225779861211777e-02
                  }
                ]
              },
              {
                "depth": 5,
                "value": 6.0,
                "norm_class_idx": 6,
                "splits": [
                  {
                    "var": 11,
                    "quality": 6.2587627410888672e+01,
                    "le": 7.4571437835693359e+00
                  }
                ]
              },
              {
                "depth": 6,
                "value": 4.0,
                "norm_class_idx": 4
              },
              {
                "depth": 6,
                "value": 6.0,
                "norm_class_idx": 6,
                "splits": [
                  {
                    "var": 24,
                    "quality": 6.3064704895019531e+01,
                    "le": 3.2629733085632324e+00
                  }
                ]
              },
              {
                "depth": 7,
                "value": 6.0,
                "norm_class_idx": 6,
                "splits": [
                  {
                    "var": 53,
                    "quality": 6.2474998474121094e+01,
                    "le": 4.0723294019699097e-02
                  }
                ]
              },
              {
                "depth": 8,
                "value": 6.0,
                "norm_class_idx": 6,
                "splits": [
                  {
                    "var": 96,
                    "quality": 6.1131580352783203e+01,
                    "le": 1.8028943240642548e-01
                  }
                ]
              },
              {
                "depth": 9,
                "value": 6.0,
                "norm_class_idx": 6,
                "splits": [
                  {
                    "var": 23,
                    "quality": 6.3407405853271484e+01,
                    "le": 2.4971871376037598e+00
                  }
                ]
              },
              {
                "depth": 10,
                "value": 6.0,
                "norm_class_idx": 6
              },
              {
                "depth": 10,
                "value": 6.0,
                "norm_class_idx": 6,
                "splits": [
                  {
                    "var": 80,
                    "quality": 1.8130434036254883e+01,
                    "le": 3.4037677105516195e-03
                  }
                ]
              },
              {
                "depth": 11,
                "value": 6.0,
                "norm_class_idx": 6,
                "splits": [
                  {
                    "var": 87,
                    "quality": 1.7899999618530273e+01,
                    "le": 9.5965126529335976e-03
                  }
                ]
              },
              {
                "depth": 12,
                "value": 6.0,
                "norm_class_idx": 6,
                "splits": [
                  {
                    "var": 48,
                    "quality": 1.8111110687255859e+01,
                    "le": 7.7330939471721649e-02
                  }
                ]
              },
              {
                "depth": 13,
                "value": 5.0,
                "norm_class_idx": 5
              },
              {
                "depth": 13,
                "value": 6.0,
                "norm_class_idx": 6,
                "splits": [
                  {
                    "var": 83,
                    "quality": 18.0,
                    "le": 9.9290963262319565e-03
                  }
                ]
              },
              {
                "depth": 14,
                "value": 5.0,
                "norm_class_idx": 5
              },
              {
                "depth": 14,
                "value": 6.0,
                "norm_class_idx": 6
              },
              {
                "depth": 12,
                "value": 5.0,
                "norm_class_idx": 5
              },
              {
                "depth": 11,
                "value": 5.0,
                "norm_class_idx": 5
              },
              {
                "depth": 9,
                "value": 4.0,
                "norm_class_idx": 4
              },
              {
                "depth": 8,
                "value": 5.0,
                "norm_class_idx": 5
              },
              {
                "depth": 7,
                "value": 5.0,
                "norm_class_idx": 5,
                "splits": [
                  {
                    "var": 45,
                    "quality": 12.0,
                    "le": 6.7738026380538940e-02
                  }
                ]
              },
              {
                "depth": 8,
                "value": 5.0,
                "norm_class_idx": 5
              },
              {
                "depth": 8,
                "value": 4.0,
                "norm_class_idx": 4
              },
              {
                "depth": 5,
                "value": 4.0,
                "norm_class_idx": 4,
                "splits": [
                  {
                    "var": 75,
                    "quality": 6.0093814849853516e+01,
                    "le": 8.6157079786062241e-03
                  }
                ]
              },
              {
                "depth": 6,
                "value": 4.0,
                "norm_class_idx": 4,
                "splits": [
                  {
                    "var": 72,
                    "quality": 5.7912696838378906e+01,
                    "le": 9.2949628829956055e-02
                  }
                ]
              },
              {
                "depth": 7,
                "value": 4.0,
                "norm_class_idx": 4,
                "splits": [
                  {
                    "var": 97,
                    "quality": 5.7290321350097656e+01,
                    "le": 2.0099161192774773e-02
                  }
                ]
              },
              {
                "depth": 8,
                "value": 5.0,
                "norm_class_idx": 5
              },
              {
                "depth": 8,
                "value": 4.0,
                "norm_class_idx": 4,
                "splits": [
                  {
                    "var": 33,
                    "quality": 5.7125000000000000e+01,
                    "le": 4.7638773918151855e-02
                  }
                ]
              },
              {
                "depth": 9,
                "value": 4.0,
                "norm_class_idx": 4,
                "splits": [
                  {
                    "var": 33,
                    "quality": 16.0,
                    "le": 4.6064645051956177e-02
                  }
                ]
              },
              {
                "depth": 10,
                "value": 4.0,
                "norm_class_idx": 4
              },
              {
                "depth": 10,
                "value": 1.0,
                "norm_class_idx": 1
              },
              {
                "depth": 9,
                "value": 4.0,
                "norm_class_idx": 4
              },
              {
                "depth": 7,
                "value": 1.0,
                "norm_class_idx": 1
              },
              {
                "depth": 6,
                "value": 6.0,
                "norm_class_idx": 6,
                "splits": [
                  {
                    "var": 92,
                    "quality": 14.0,
                    "le": 8.9097078889608383e-03
                  }
                ]
              },
              {
                "depth": 7,
                "value": 6.0,
                "norm_class_idx": 6
              },
              {
                "depth": 7,
                "value": 4.0,
                "norm_class_idx": 4
              },
              {
                "depth": 4,
                "value": 5.0,
                "norm_class_idx": 5,
                "splits": [
                  {
                    "var": 108,
                    "quality": 1.3623091125488281e+02,
                    "le": 5.6109495460987091e-02
                  }
                ]
              },
              {
                "depth": 5,
                "value": 5.0,
                "norm_class_idx": 5,
                "splits": [
                  {
                    "var": 108,
                    "quality": 1.2246969604492188e+02,
                    "le": 1.0039501823484898e-02
                  }
                ]
              },
              {
                "depth": 6,
                "value": 0.0,
                "norm_class_idx": 0
              },
              {
                "depth": 6,
                "value": 5.0,
                "norm_class_idx": 5,
                "splits": [
                  {
                    "var": 28,
                    "quality": 1.2238167572021484e+02,
                    "le": 5.1081619262695313e+01
                  }
                ]
              },
              {
                "depth": 7,
                "value": 5.0,
                "norm_class_idx": 5,
                "splits": [
                  {
                    "var": 53,
                    "quality": 1.2377777862548828e+02,
                    "le": 8.2696927711367607e-04
                  }
                ]
              },
              {
                "depth": 8,
                "value": 5.0,
                "norm_class_idx": 5,
                "splits": [
                  {
                    "var": 101,
                    "quality": 18.0,
                    "le": 9.3894928693771362e-02
                  }
                ]
              },
              {
                "depth": 9,
                "value": 5.0,
                "norm_class_idx": 5
              },
              {
                "depth": 9,
                "value": 4.0,
                "norm_class_idx": 4
              },
              {
                "depth": 8,
                "value": 5.0,
                "norm_class_idx": 5
              },
              {
                "depth": 7,
                "value": 2.0,
                "norm_class_idx": 2
              },
              {
                "depth": 5,
                "value": 4.0,
                "norm_class_idx": 4,
                "splits": [
                  {
                    "var": 13,
                    "quality": 2.7333333969116211e+01,
                    "le": 3.2128017425537109e+01
                  }
                ]
              },
              {
                "depth": 6,
                "value": 4.0,
                "norm_class_idx": 4,
                "splits": [
                  {
                    "var": 7,
                    "quality": 24.0,
                    "le": 4.8369770050048828e+01
                  }
                ]
              },
              {
                "depth": 7,
                "value": 4.0,
                "norm_class_idx": 4
              },
              {
                "depth": 7,
                "value": 5.0,
                "norm_class_idx": 5
              },
              {
                "depth": 6,
                "value": 5.0,
                "norm_class_idx": 5
              },
              {
                "depth": 3,
                "value": 1.0,
                "norm_class_idx": 1,
                "splits": [
                  {
                    "var": 111,
                    "quality": 1.0153672027587891e+02,
                    "le": 2.1015936136245728e-01
                  }
                ]
              },
              {
                "depth": 4,
                "value": 0.0,
                "norm_class_idx": 0
              },
              {
                "depth": 4,
                "value": 1.0,
                "norm_class_idx": 1,
                "splits": [
                  {
                    "var": 79,
                    "quality": 1.0227256774902344e+02,
                    "le": 3.3729143440723419e-02
                  }
                ]
              },
              {
                "depth": 5,
                "value": 1.0,
                "norm_class_idx": 1,
                "splits": [
                  {
                    "var": 74,
                    "quality": 1.0148213958740234e+02,
                    "le": 5.9036634862422943e-02
                  }
                ]
              },
              {
                "depth": 6,
                "value": 1.0,
                "norm_class_idx": 1,
                "splits": [
                  {
                    "var": 40,
                    "quality": 1.0237837982177734e+02,
                    "le": 3.0885073542594910e-01
                  }
                ]
              },
              {
                "depth": 7,
                "value": 1.0,
                "norm_class_idx": 1,
                "splits": [
                  {
                    "var": 40,
                    "quality": 1.0213592529296875e+02,
                    "le": 1.0514174401760101e-01
                  }
                ]
              },
              {
                "depth": 8,
                "value": 1.0,
                "norm_class_idx": 1,
                "splits": [
                  {
                    "var": 2,
                    "quality": 9.8079208374023438e+01,
                    "le": 7.2706538438796997e-01
                  }
                ]
              },
              {
                "depth": 9,
                "value": 0.0,
                "norm_class_idx": 0
              },
              {
                "depth": 9,
                "value": 1.0,
                "norm_class_idx": 1,
                "splits": [
                  {
                    "var": 1,
                    "quality": 9.7800003051757813e+01,
                    "le": 1.6966987609863281e+01
                  }
                ]
              },
              {
                "depth": 10,
                "value": 1.0,
                "norm_class_idx": 1
              },
              {
                "depth": 10,
                "value": 1.0,
                "norm_class_idx": 1
              },
              {
                "depth": 8,
                "value": 1.0,
                "norm_class_idx": 1
              },
              {
                "depth": 7,
                "value": 5.0,
                "norm_class_idx": 5
              },
              {
                "depth": 6,
                "value": 4.0,
                "norm_class_idx": 4
              },
              {
                "depth": 5,
                "value": 5.0,
                "norm_class_idx": 5
              },
              {
                "depth": 2,
                "value": 2.0,
                "norm_class_idx": 2,
                "splits": [
                  {
                    "var": 24,
                    "quality": 1.1190715026855469e+02,
                    "le": 4.4454196095466614e-01
                  }
                ]
              },
              {
                "depth": 3,
                "value": 0.0,
                "norm_class_idx": 0,
                "splits": [
                  {
                    "var": 49,
                    "quality": 1.0050000190734863e+01,
                    "le": 9.5732969045639038e-01
                  }
                ]
              },
              {
                "depth": 4,
                "value": 0.0,
                "norm_class_idx": 0
              },
              {
                "depth": 4,
                "value": 3.0,
                "norm_class_idx": 3
              },
              {
                "depth": 3,
                "value": 2.0,
                "norm_class_idx": 2,
                "splits": [
                  {
                    "var": 91,
                    "quality": 1.1666319274902344e+02,
                    "le": 1.6949254274368286e-01
                  }
                ]
              },
              {
                "depth": 4,
                "value": 2.0,
                "norm_class_idx": 2,
                "splits": [
                  {
                    "var": 69,
                    "quality": 1.1141866302490234e+02,
                    "le": 2.1907179057598114e-01
                  }
                ]
              },
              {
                "depth": 5,
                "value": 2.0,
                "norm_class_idx": 2,
                "splits": [
                  {
                    "var": 34,
                    "quality": 1.1396174621582031e+02,
                    "le": 1.7871832847595215e-01
                  }
                ]
              },
              {
                "depth": 6,
                "value": 6.0,
                "norm_class_idx": 6
              },
              {
                "depth": 6,
                "value": 2.0,
                "norm_class_idx": 2,
                "splits": [
                  {
                    "var": 4,
                    "quality": 1.1418181610107422e+02,
                    "le": 1.5692518234252930e+01
                  }
                ]
              },
              {
                "depth": 7,
                "value": 2.0,
                "norm_class_idx": 2,
                "splits": [
                  {
                    "var": 36,
                    "quality": 1.1511666870117188e+02,
                    "le": 1.1257955551147461e+01
                  }
                ]
              },
              {
                "depth": 8,
                "value": 2.0,
                "norm_class_idx": 2,
                "splits": [
                  {
                    "var": 79,
                    "quality": 1.1605042266845703e+02,
                    "le": 3.1653039157390594e-02
                  }
                ]
              },
              {
                "depth": 9,
                "value": 2.0,
                "norm_class_idx": 2,
                "splits": [
                  {
                    "var": 76,
                    "quality": 1.1535103607177734e+02,
                    "le": 1.1744244396686554e-01
                  }
                ]
              },
              {
                "depth": 10,
                "value": 2.0,
                "norm_class_idx": 2,
                "splits": [
                  {
                    "var": 1,
                    "quality": 1.1111764526367188e+02,
                    "le": 2.9552026748657227e+01
                  }
                ]
              },
              {
                "depth": 11,
                "value": 2.0,
                "norm_class_idx": 2
              },
              {
                "depth": 11,
                "value": 2.0,
                "norm_class_idx": 2,
                "splits": [
                  {
                    "var": 49,
                    "quality": 17.0,
                    "le": 1.9372129440307617e+00
                  }
                ]
              },
              {
                "depth": 12,
                "value": 2.0,
                "norm_class_idx": 2
              },
              {
                "depth": 12,
                "value": 6.0,
                "norm_class_idx": 6
              },
              {
                "depth": 10,
                "value": 2.0,
                "norm_class_idx": 2
              },
              {
                "depth": 9,
                "value": 6.0,
                "norm_class_idx": 6
              },
              {
                "depth": 8,
                "value": 0.0,
                "norm_class_idx": 0
              },
              {
                "depth": 7,
                "value": 6.0,
                "norm_class_idx": 6
              },
              {
                "depth": 5,
                "value": 1.0,
                "norm_class_idx": 1
              },
              {
                "depth": 4,
                "value": 5.0,
                "norm_class_idx": 5,
                "splits": [
                  {
                    "var": 112,
                    "quality": 1.3800000190734863e+01,
                    "le": 2.4280015379190445e-02
                  }
                ]
              },
              {
                "depth": 5,
                "value": 5.0,
                "norm_class_idx": 5
              },
              {
                "depth": 5,
                "value": 2.0,
                "norm_class_idx": 2
              },
              {
                "depth": 1,
                "value": 3.0,
                "norm_class_idx": 3,
                "splits": [
                  {
                    "var": 74,
                    "quality": 1.2387432861328125e+02,
                    "le": 1.3554247561842203e-03
                  }
                ]
              },
              {
                "depth": 2,
                "value": 3.0,
                "norm_class_idx": 3,
                "splits": [
                  {
                    "var": 53,
                    "quality": 1.1983427429199219e+02,
                    "le": 1.1636888980865479e+00
                  }
                ]
              },
              {
                "depth": 3,
                "value": 3.0,
                "norm_class_idx": 3,
                "splits": [
                  {
                    "var": 87,
                    "quality": 1.5250000000000000e+01,
                    "le": 5.9169931337237358e-03
                  }
                ]
              },
              {
                "depth": 4,
                "value": 3.0,
                "norm_class_idx": 3
              },
              {
                "depth": 4,
                "value": 0.0,
                "norm_class_idx": 0
              },
              {
                "depth": 3,
                "value": 3.0,
                "norm_class_idx": 3,
                "splits": [
                  {
                    "var": 35,
                    "quality": 1.1233333587646484e+02,
                    "le": 1.3605606555938721e+00
                  }
                ]
              },
              {
                "depth": 4,
                "value": 3.0,
                "norm_class_idx": 3
              },
              {
                "depth": 4,
                "value": 3.0,
                "norm_class_idx": 3
              },
              {
                "depth": 2,
                "value": 0.0,
                "norm_class_idx": 0,
                "splits": [
                  {
                    "var": 48,
                    "quality": 1.3461538314819336e+01,
                    "le": 4.2625036239624023e+00
                  }
                ]
              },
              {
                "depth": 3,
                "value": 3.0,
                "norm_class_idx": 3
              },
              {
                "depth": 3,
                "value": 0.0,
                "norm_class_idx": 0,
                "splits": [
                  {
                    "var": 65,
                    "quality": 12.0,
                    "le": 1.0130658745765686e-01
                  }
                ]
              },
              {
                "depth": 4,
                "value": 0.0,
                "norm_class_idx": 0
              },
              {
                "depth": 4,
                "value": 3.0,
                "norm_class_idx": 3
              }
            ]
          },
          {
            "nodes": [
              {
                "depth": 0,
                "value": 5.0,
                "norm_class_idx": 5,
                "splits": [
                  {
                    "var": 52,
                    "quality": 2.5460852050781250e+02,
                    "le": 3.6602327823638916e+00
                  }
                ]
              },
              {
                "depth": 1,
                "value": 5.0,
                "norm_class_idx": 5,
                "splits": [
                  {
                    "var": 56,
                    "quality": 2.2687638854980469e+02,
                    "le": 6.9032990932464600e-01
                  }
                ]
              },
              {
                "depth": 2,
                "value": 5.0,
                "norm_class_idx": 5,
                "splits": [
                  {
                    "var": 52,
                    "quality": 2.2427345275878906e+02,
                    "le": 5.1510161161422729e-01
                  }
                ]
              },
              {
                "depth": 3,
                "value": 5.0,
                "norm_class_idx": 5,
                "splits": [
                  {
                    "var": 99,
                    "quality": 1.6762638854980469e+02,
                    "le": 2.5963334366679192e-02
                  }
                ]
              },
              {
                "depth": 4,
                "value": 5.0,
                "norm_class_idx": 5,
                "splits": [
                  {
                    "var": 83,
                    "quality": 1.5710330200195313e+02,
                    "le": 1.9608076661825180e-02
                  }
                ]
              },
              {
                "depth": 5,
                "value": 6.0,
                "norm_class_idx": 6,
                "splits": [
                  {
                    "var": 87,
                    "quality": 6.6511627197265625e+01,
                    "le": 9.5041971653699875e-03
                  }
                ]
              },
              {
                "depth": 6,
                "value": 6.0,
                "norm_class_idx": 6,
                "splits": [
                  {
                    "var": 89,
                    "quality": 6.6192771911621094e+01,
                    "le": 1.9984081387519836e-02
                  }
                ]
              },
              {
                "depth": 7,
                "value": 6.0,
                "norm_class_idx": 6,
                "splits": [
                  {
                    "var": 107,
                    "quality": 7.0194869995117188e+01,
                    "le": 2.9289536178112030e-02
                  }
                ]
              },
              {
                "depth": 8,
                "value": 6.0,
                "norm_class_idx": 6,
                "splits": [
                  {
                    "var": 2,
                    "quality": 7.0085716247558594e+01,
                    "le": 9.2055046558380127e-01
                  }
                ]
              },
              {
                "depth": 9,
                "value": 6.0,
                "norm_class_idx": 6,
                "splits": [
                  {
                    "var": 50,
                    "quality": 6.7029411315917969e+01,
                    "le": 2.2276880219578743e-02
                  }
                ]
              },
              {
                "depth": 10,
                "value": 6.0,
                "norm_class_idx": 6,
                "splits": [
                  {
                    "var": 103,
                    "quality": 6.6500000000000000e+01,
                    "le": 2.2813752293586731e-02
                  }
                ]
              },
              {
                "depth": 11,
                "value": 6.0,
                "norm_class_idx": 6
              },
              {
                "depth": 11,
                "value": 6.0,
                "norm_class_idx": 6
              },
              {
                "depth": 10,
                "value": 4.0,
                "norm_class_idx": 4
              },
              {
                "depth": 9,
                "value": 5.0,
                "norm_class_idx": 5
              },
              {
                "depth": 8,
                "value": 4.0,
                "norm_class_idx": 4
              },
              {
                "depth": 7,
                "value": 5.0,
                "norm_class_idx": 5
              },
              {
                "depth": 6,
                "value": 5.0,
                "norm_class_idx": 5
              },
              {
                "depth": 5,
                "value": 5.0,
                "norm_class_idx": 5,
                "splits": [
                  {
                    "var": 11,
                    "quality": 1.0308730316162109e+02,
                    "le": 1.4862628936767578e+01
                  }
                ]
              },
              {
                "depth": 6,
                "value": 5.0,
                "norm_class_idx": 5,
                "splits": [
                  {
                    "var": 101,
                    "quality": 1.1221238708496094e+02,
                    "le": 8.6840853095054626e-02
                  }
                ]
              },
              {
                "depth": 7,
                "value": 5.0,
                "norm_class_idx": 5,
                "splits": [
                  {
                    "var": 87,
                    "quality": 1.0712500000000000e+02,
                    "le": 6.3422787934541702e-03
                  }
                ]
              },
              {
                "depth": 8,
                "value": 6.0,
                "norm_class_idx": 6
              },
              {
                "depth": 8,
                "value": 5.0,
                "norm_class_idx": 5,
                "splits": [
                  {
                    "var": 25,
                    "quality": 1.0649163818359375e+02,
                    "le": 2.6063472032546997e-01
                  }
                ]
              },
              {
                "depth": 9,
                "value": 5.0,
                "norm_class_idx": 5,
                "splits": [
                  {
                    "var": 19,
                    "quality": 1.5125000000000000e+01,
                    "le": 4.6955642700195313e+00
                  }
                ]
              },
              {
                "depth": 10,
                "value": 5.0,
                "norm_class_idx": 5,
                "splits": [
                  {
                    "var": 94,
                    "quality": 16.0,
                    "le": 3.7639051675796509e-02
                  }
                ]
              },
              {
                "depth": 11,
                "value": 5.0,
                "norm_class_idx": 5
              },
              {
                "depth": 11,
                "value": 4.0,
                "norm_class_idx": 4
              },
              {
                "depth": 10,
                "value": 4.0,
                "norm_class_idx": 4
              },
              {
                "depth": 9,
                "value": 5.0,
                "norm_class_idx": 5,
                "splits": [
                  {
                    "var": 79,
                    "quality": 9.3285713195800781e+01,
                    "le": 2.0770363509654999e-02
                  }
                ]
              },
              {
                "depth": 10,
                "value": 5.0,
                "norm_class_idx": 5
              },
              {
                "depth": 10,
                "value": 5.0,
                "norm_class_idx": 5
              },
              {
                "depth": 7,
                "value": 4.0,
                "norm_class_idx": 4,
                "splits": [
                  {
                    "var": 61,
                    "quality": 1.1500000000000000e+01,
                    "le": 9.1126665472984314e-02
                  }
                ]
              },
              {
                "depth": 8,
                "value": 4.0,
                "norm_class_idx": 4
              },
              {
                "depth": 8,
                "value": 5.0,
                "norm_class_idx": 5
              },
              {
                "depth": 6,
                "value": 6.0,
                "norm_class_idx": 6
              },
              {
                "depth": 4,
                "value": 4.0,
                "norm_class_idx": 4,
                "splits": [
                  {
                    "var": 82,
                    "quality": 8.6242942810058594e+01,
                    "le": 3.1603612005710602e-02
                  }
                ]
              },
              {
                "depth": 5,
                "value": 4.0,
                "norm_class_idx": 4,
                "splits": [
                  {
                    "var": 64,
                    "quality": 7.6009674072265625e+01,
                    "le": 4.8268143087625504e-02
                  }
                ]
              },
              {
                "depth": 6,
                "value": 4.0,
                "norm_class_idx": 4,
                "splits": [
                  {
                    "var": 103,
                    "quality": 7.7151260375976563e+01,
                    "le": 6.5743722021579742e-02
                  }
                ]
              },
              {
                "depth": 7,
                "value": 4.0,
                "norm_class_idx": 4,
                "splits": [
                  {
                    "var": 93,
                    "quality": 3.0492307662963867e+01,
                    "le": 5.4585523903369904e-02
                  }
                ]
              },
              {
                "depth": 8,
                "value": 5.0,
                "norm_class_idx": 5,
                "splits": [
                  {
                    "var": 82,
                    "quality": 1.9071428298950195e+01,
                    "le": 7.9967128112912178e-03
                  }
                ]
              },
              {
                "depth": 9,
                "value": 6.0,
                "norm_class_idx": 6,
                "splits": [
                  {
                    "var": 73,
                    "quality": 1.0181818008422852e+01,
                    "le": 4.5681308954954147e-02
                  }
                ]
              },
              {
                "depth": 10,
                "value": 6.0,
                "norm_class_idx": 6,
                "splits": [
                  {
                    "var": 11,
                    "quality": 11.0,
                    "le": 1.5248422622680664e+01
                  }
                ]
              },
              {
                "depth": 11,
                "value": 6.0,
                "norm_class_idx": 6
              },
              {
                "depth": 11,
                "value": 4.0,
                "norm_class_idx": 4
              },
              {
                "depth": 10,
                "value": 5.0,
                "norm_class_idx": 5
              },
              {
                "depth": 9,
                "value": 5.0,
                "norm_class_idx": 5,
                "splits": [
                  {
                    "var": 87,
                    "quality": 14.0,
                    "le": 3.0422531068325043e-02
                  }
                ]
              },
              {
                "depth": 10,
                "value": 5.0,
                "norm_class_idx": 5
              },
              {
                "depth": 10,
                "value": 4.0,
                "norm_class_idx": 4
              },
              {
                "depth": 8,
                "value": 4.0,
                "norm_class_idx": 4,
                "splits": [
                  {
                    "var": 104,
                    "quality": 2.6230770111083984e+01,
                    "le": 4.8533596098423004e-02
                  }
                ]
              },
              {
                "depth": 9,
                "value": 4.0,
                "norm_class_idx": 4,
                "splits": [
                  {
                    "var": 11,
                    "quality": 2.4079999923706055e+01,
                    "le": 1.5269388198852539e+01
                  }
                ]
              },
              {
                "depth": 10,
                "value": 4.0,
                "norm_class_idx": 4,
                "splits": [
                  {
                    "var": 73,
                    "quality": 25.0,
                    "le": 1.4626855030655861e-02
                  }
                ]
              },
              {
                "depth": 11,
                "value": 1.0,
                "norm_class_idx": 1
              },
              {
                "depth": 11,
                "value": 4.0,
                "norm_class_idx": 4
              },
              {
                "depth": 10,
                "value": 6.0,
                "norm_class_idx": 6
              },
              {
                "depth": 9,
                "value": 5.0,
                "norm_class_idx": 5
              },
              {
                "depth": 7,
                "value": 4.0,
                "norm_class_idx": 4,
                "splits": [
                  {
                    "var": 0,
                    "quality": 6.0393939971923828e+01,
                    "le": 7.5032272338867188e+01
                  }
                ]
              },
              {
                "depth": 8,
                "value": 4.0,
                "norm_class_idx": 4,
                "splits": [
                  {
                    "var": 96,
                    "quality": 6.0276924133300781e+01,
                    "le": 2.1473458409309387e-01
                  }
                ]
              },
              {
                "depth": 9,
                "value": 5.0,
                "norm_class_idx": 5
              },
              {
                "depth": 9,
                "value": 4.0,
                "norm_class_idx": 4,
                "splits": [
                  {
                    "var": 15,
                    "quality": 6.1698925018310547e+01,
                    "le": 1.4383064270019531e+01
                  }
                ]
              },
              {
                "depth": 10,
                "value": 4.0,
                "norm_class_idx": 4,
                "splits": [
                  {
                    "var": 27,
                    "quality": 62.0,
                    "le": 1.1873971223831177e+00
                  }
                ]
              },
              {
                "depth": 11,
                "value": 1.0,
                "norm_class_idx": 1
              },
              {
                "depth": 11,
                "value": 4.0,
                "norm_class_idx": 4
              },
              {
                "depth": 10,
                "value": 1.0,
                "norm_class_idx": 1
              },
              {
                "depth": 8,
                "value": 5.0,
                "norm_class_idx": 5
              },
              {
                "depth": 6,
                "value": 1.0,
                "norm_class_idx": 1,
                "splits": [
                  {
                    "var": 83,
                    "quality": 11.0,
                    "le": 3.0780054628849030e-02
                  }
                ]
              },
              {
                "depth": 7,
                "value": 1.0,
                "norm_class_idx": 1
              },
              {
                "depth": 7,
                "value": 5.0,
                "norm_class_idx": 5
              },
              {
                "depth": 5,
                "value": 5.0,
                "norm_class_idx": 5,
                "splits": [
                  {
                    "var": 7,
                    "quality": 24.0,
                    "le": 3.5204116821289063e+01
                  }
                ]
              },
              {
                "depth": 6,
                "value": 4.0,
                "norm_class_idx": 4
              },
              {
                "depth": 6,
                "value": 5.0,
                "norm_class_idx": 5
              },
              {
                "depth": 3,
                "value": 2.0,
                "norm_class_idx": 2,
                "splits": [
                  {
                    "var": 74,
                    "quality": 1.0516535186767578e+02,
                    "le": 9.9753767251968384e-02
                  }
                ]
              },
              {
                "depth": 4,
                "value": 2.0,
                "norm_class_idx": 2,
                "splits": [
                  {
                    "var": 67,
                    "quality": 1.0516260528564453e+02,
                    "le": 1.9175374507904053e-01
                  }
                ]
              },
              {
                "depth": 5,
                "value": 2.0,
                "norm_class_idx": 2,
                "splits": [
                  {
                    "var": 12,
                    "quality": 1.0383728790283203e+02,
                    "le": 1.4152166247367859e-01
                  }
                ]
              },
              {
                "depth": 6,
                "value": 6.0,
                "norm_class_idx": 6
              },
              {
                "depth": 6,
                "value": 2.0,
                "norm_class_idx": 2,
                "splits": [
                  {
                    "var": 35,
                    "quality": 1.0496122741699219e+02,
                    "le": 9.4382382929325104e-02
                  }
                ]
              },
              {
                "depth": 7,
                "value": 2.0,
                "norm_class_idx": 2,
                "splits": [
                  {
                    "var": 89,
                    "quality": 20.0,
                    "le": 1.4915633946657181e-02
                  }
                ]
              },
              {
                "depth": 8,
                "value": 6.0,
                "norm_class_idx": 6
              },
              {
                "depth": 8,
                "value": 2.0,
                "norm_class_idx": 2
              },
              {
                "depth": 7,
                "value": 2.0,
                "norm_class_idx": 2,
                "splits": [
                  {
                    "var": 36,
                    "quality": 9.6020622253417969e+01,
